
#include "network_evaluate.h"



float linear(float num) {
	return num;
}



float sigmoid(float num) {
	return 1 / (1 + exp(-num));
}



float relu(float num) {
	if (num > 0) {
		return num;
	} else {
		return 0;
	}
}

static const int structure[4][2] = {{13, 32},{32, 32},{32, 32},{32, 32},{32, 8}};
static float output_0[32];
static float output_1[32];
static float output_2[32];
static float output_3[32];
static const float layer_0_weight[13][32] = {{-0.40946438908576965,-0.3954868018627167,-0.629113495349884,0.45943012833595276,-0.46600598096847534,0.4908810555934906,-0.2424163520336151,-0.46844086050987244,0.020895972847938538,0.28188857436180115,-0.46366792917251587,0.02467191591858864,-0.5115519762039185,-0.5332954525947571,0.4364891052246094,-0.4502330422401428,0.548692524433136,-0.1889556348323822,0.5220147371292114,-0.01113998144865036,0.2946976125240326,-0.2543456256389618,0.3113662004470825,-0.34179484844207764,0.5096652507781982,0.29910415410995483,0.6709505319595337,-0.018546247854828835,-0.37757444381713867,0.03252694010734558,-0.10385054349899292,0.6753886342048645},{0.4893680214881897,0.06271809339523315,-0.24736042320728302,0.46881115436553955,-0.22379979491233826,-0.4108954966068268,-0.13223150372505188,0.5999890565872192,0.3436392545700073,0.4645342230796814,-0.5568975210189819,-0.14681704342365265,-0.5521332025527954,-0.15526483952999115,-0.19451475143432617,0.055783338844776154,0.45775720477104187,0.02776290662586689,-0.2847549617290497,-0.17883512377738953,-0.20119601488113403,-0.2065296769142151,-0.15158718824386597,-0.3863074779510498,0.0069142053835093975,-0.12191572040319443,-0.09609516710042953,-0.06288076192140579,0.4891749322414398,-0.24167056381702423,0.2694873809814453,0.0883684754371643},{-0.27258890867233276,0.08552456647157669,0.2571743130683899,-0.21440112590789795,0.6635239124298096,-0.35361501574516296,0.48868218064308167,-0.29972127079963684,-0.29731231927871704,-0.19356906414031982,0.3402869999408722,0.026223720982670784,0.5505940914154053,-0.7384513020515442,0.0468798391520977,0.4329582452774048,0.37410497665405273,0.1681848168373108,-0.3878237009048462,0.22625042498111725,-0.6186994314193726,0.25709253549575806,0.025197578594088554,-0.37798836827278137,-0.4327392578125,0.2321855127811432,0.20756669342517853,0.23096604645252228,-0.20815397799015045,0.08181560784578323,-0.5350396037101746,-0.05524091050028801},{-0.24047444760799408,0.46606582403182983,0.11040499806404114,0.3484320640563965,0.18648675084114075,0.2351079136133194,-0.008066955953836441,-0.1231217160820961,0.16747792065143585,-0.17844879627227783,-0.39478790760040283,0.49378883838653564,-0.24693219363689423,0.5477362871170044,0.08982827514410019,0.1684790551662445,-0.30150994658470154,-0.27598297595977783,-0.32899367809295654,0.12314614653587341,-0.24138472974300385,0.048601340502500534,0.13138170540332794,-0.3526979684829712,0.14668457210063934,-0.42242783308029175,-0.00333043304271996,0.39578133821487427,0.2476620376110077,0.4141569137573242,-0.2149655818939209,0.18972276151180267},{0.12635070085525513,0.2003086507320404,0.18716277182102203,-0.1714300662279129,-0.28381043672561646,-0.047424670308828354,-0.16123603284358978,0.26600512862205505,-0.013368860818445683,0.2617703378200531,-0.09434455633163452,0.1457405984401703,0.34895381331443787,0.21480907499790192,0.2289419025182724,0.29317036271095276,0.12145806103944778,-0.06747987121343613,0.03649112209677696,0.07591532170772552,0.19709047675132751,-0.27338695526123047,-0.213657945394516,0.39763620495796204,-0.5226938128471375,0.3209543228149414,0.03749755024909973,-0.36908677220344543,0.2325306087732315,0.32422223687171936,0.38351961970329285,-0.30236393213272095},{0.34345075488090515,0.09978733956813812,0.3665524423122406,-0.4601726830005646,0.04676743596792221,0.3099830746650696,-0.16974042356014252,0.1249241977930069,-0.06653990596532822,0.231088787317276,0.19570232927799225,-0.12580783665180206,-0.18525342643260956,-0.349886029958725,0.22911982238292694,0.17873021960258484,-0.3345645070075989,-0.17215833067893982,0.3846147358417511,0.5078912377357483,0.4609915316104889,-0.34674566984176636,-0.5080732703208923,-0.16143839061260223,0.0633612647652626,-0.06332886964082718,0.2531543970108032,0.4231205880641937,0.34438586235046387,0.16187848150730133,-0.2713755965232849,0.15974989533424377},{0.11432331800460815,-0.32051536440849304,0.4179343283176422,-0.33725178241729736,-0.27138805389404297,0.3043246567249298,0.30581527948379517,-0.3535747230052948,-0.29443982243537903,-0.20960095524787903,0.22909948229789734,-0.127171128988266,-0.022779321298003197,0.31662148237228394,-0.1908460408449173,0.4030497074127197,-0.3896547853946686,-0.30550095438957214,-0.2307400405406952,-0.2828199565410614,-0.3277052044868469,0.09091895073652267,-0.3552163243293762,-0.018744075670838356,-0.1952526569366455,-0.24338077008724213,-0.035910576581954956,0.25251999497413635,0.17878447473049164,-0.08564469963312149,-0.036842476576566696,0.23438653349876404},{0.2687548100948334,0.07207900285720825,-0.5379412174224854,0.15616585314273834,0.20440544188022614,0.10482684522867203,-0.3378145098686218,-0.35051074624061584,0.47413188219070435,0.1899833083152771,-0.2756640315055847,-0.4932604432106018,0.16302558779716492,-0.25945428013801575,0.37697869539260864,0.18802525103092194,-0.048382095992565155,-0.36648130416870117,-0.17820359766483307,-0.07413910329341888,0.260000616312027,-0.1857113540172577,0.1421079933643341,-0.06007397547364235,-0.06226050481200218,-0.282320499420166,-0.18039999902248383,0.360034704208374,-0.0015563878696411848,0.46732160449028015,-0.42324647307395935,-0.17166706919670105},{0.21520891785621643,0.2780919373035431,-0.23503535985946655,0.5332008600234985,-0.4864945411682129,-0.22171103954315186,0.02521536499261856,0.24514871835708618,0.20571014285087585,0.17718999087810516,-0.49163317680358887,0.0024017710238695145,-0.277313232421875,-0.09680719673633575,0.2945254147052765,-0.06475409865379333,0.13978025317192078,0.22819682955741882,0.06140024960041046,0.25785261392593384,-0.3394750654697418,-0.018838247284293175,-0.36244258284568787,0.12362457066774368,0.5053529143333435,0.2569755017757416,-0.016066832467913628,-0.1457720845937729,-0.3998379111289978,-0.06729857623577118,0.07745689153671265,0.47553908824920654},{-0.41367486119270325,0.5483831763267517,0.022816656157374382,-0.06550930440425873,0.5218720436096191,-0.460201621055603,-0.2955426275730133,-0.1328805834054947,-0.31614360213279724,0.23638170957565308,-0.4008921682834625,0.0033958740532398224,-0.11071215569972992,-0.7907496690750122,-0.115058533847332,0.16972889006137848,0.3743879497051239,0.60174560546875,-0.11489512771368027,-0.1461670845746994,-0.06170683726668358,-0.11371346563100815,-0.09470081329345703,0.01323694922029972,-0.5093486905097961,0.11628628522157669,-0.1061369925737381,0.2863766551017761,-0.1403738260269165,0.26870274543762207,-0.251126229763031,-0.22818171977996826},{-0.28429290652275085,-0.37869152426719666,-0.31988227367401123,-0.2874615490436554,0.16984707117080688,0.45831698179244995,0.415293425321579,0.39286327362060547,-0.1525575965642929,0.16286829113960266,0.25167742371559143,0.034617695957422256,0.4648333489894867,-0.13001686334609985,0.5403640270233154,0.13697519898414612,0.3603748381137848,-0.2508440315723419,0.23911339044570923,-0.05094710737466812,0.25225257873535156,0.19878964126110077,-0.22211547195911407,0.14719271659851074,-0.28696492314338684,0.5956644415855408,0.546314537525177,0.04186340421438217,0.042098451405763626,0.4731040596961975,0.2027786672115326,0.22120124101638794},{0.06687946617603302,-0.04982281103730202,0.2564083933830261,-0.2379334717988968,-0.33647164702415466,0.30292773246765137,-0.23684731125831604,0.22853818535804749,0.26723262667655945,0.360029935836792,-0.29635488986968994,-0.20003530383110046,0.33690181374549866,-0.23303617537021637,0.549185037612915,0.32267463207244873,-0.30392152070999146,0.36157917976379395,-0.23467017710208893,0.5054665207862854,0.3215978443622589,-0.3810635805130005,-0.3687668740749359,0.4687422811985016,0.31688275933265686,-0.39843612909317017,0.025712519884109497,-0.1932324320077896,0.09561023116111755,-0.21146516501903534,-0.48210033774375916,-0.35765540599823},{-0.023186638951301575,-0.2427668273448944,0.331160306930542,-0.183834046125412,0.06913190335035324,-0.0538175106048584,0.08046144992113113,-0.04614817723631859,-0.0021318180952221155,-0.3907431364059448,0.001940644346177578,0.06435389816761017,-0.2402174025774002,0.288234144449234,0.24375957250595093,0.14149460196495056,-0.19641220569610596,-0.18954846262931824,-0.3775763213634491,-0.10065861791372299,0.1474529653787613,-0.2467675358057022,-0.30765053629875183,-0.148368701338768,-0.21048252284526825,0.33922624588012695,-0.31701067090034485,0.1603444367647171,0.14481577277183533,-0.3028055429458618,0.16377510130405426,0.009318129159510136}};
static const float layer_1_weight[32][32] = {{0.16559180617332458,-0.16985392570495605,-0.1701665073633194,0.16385824978351593,0.004595970269292593,0.16515366733074188,0.04574701189994812,0.14593107998371124,0.2770589590072632,-0.20057307183742523,0.11314133554697037,0.1705644130706787,0.11250429600477219,-0.2830941677093506,-0.05142844840884209,-0.04089794680476189,-0.18051832914352417,0.11501624435186386,-0.4959782660007477,-0.02963665872812271,-0.08937687426805496,-0.5842825770378113,0.06044965982437134,0.14697612822055817,-0.10278546810150146,-0.15698948502540588,0.053385864943265915,0.2534158527851105,0.2415064573287964,0.3453345000743866,-0.14833401143550873,0.2404657006263733},{-0.15259620547294617,-0.2573889195919037,0.38564974069595337,0.25863945484161377,0.055673837661743164,0.008825165219604969,-0.00547417625784874,0.2539048194885254,0.35778042674064636,-0.058993443846702576,-0.044119179248809814,0.19115029275417328,0.06268136203289032,0.2929966151714325,-0.26371318101882935,-0.22625036537647247,0.20515595376491547,-0.3212425112724304,0.040679723024368286,0.08325126022100449,0.30130839347839355,0.03395289555191994,-0.15379172563552856,0.027770714834332466,-0.12324243783950806,0.2665828466415405,0.17091740667819977,0.304021954536438,-0.18683111667633057,-0.2783351540565491,-0.3042060136795044,-0.09027207642793655},{-0.026586340740323067,-0.09619094431400299,-0.01716119796037674,0.019166281446814537,-0.05698435381054878,0.2617873549461365,-0.21562831103801727,0.20701515674591064,0.2468693107366562,-0.1522608995437622,-0.2249651849269867,0.034089095890522,0.3854508399963379,0.027954677119851112,0.11099013686180115,-0.12299101054668427,-0.050050534307956696,-0.16805171966552734,-0.08098867535591125,0.33713558316230774,-0.08829578757286072,-0.16468259692192078,0.07513519376516342,0.3111651837825775,0.32520198822021484,-0.01907169632613659,-0.0566825307905674,0.2631776034832001,0.16223354637622833,0.19827036559581757,-0.09977653622627258,0.26346734166145325},{0.08042629808187485,0.20288048684597015,-0.07509884983301163,-0.35210373997688293,-0.28872424364089966,0.14551162719726562,0.2842313349246979,-0.011697486974298954,-0.2154335379600525,-0.29478907585144043,0.01991279423236847,0.07743093371391296,-0.021938670426607132,-0.06825781613588333,-0.1680845022201538,-0.1979411393404007,0.14397181570529938,-0.38206809759140015,0.09695902466773987,-0.3096782863140106,0.26593515276908875,-0.28483903408050537,0.19566567242145538,0.1854921579360962,-0.14548549056053162,0.21754571795463562,-0.07918047904968262,0.3072377145290375,0.11184980720281601,-0.06211377680301666,-0.04952383041381836,0.25037235021591187},{-0.1399112492799759,0.12232111394405365,0.10930907726287842,0.023982644081115723,0.3731510043144226,0.2925100326538086,0.30614975094795227,0.005015358328819275,0.3153151571750641,-0.0697474554181099,-0.1253201812505722,0.2891863286495209,0.22540171444416046,-0.1599399745464325,-0.026550572365522385,0.3133414387702942,-0.05882999673485756,-0.18217597901821136,0.11026650667190552,0.3754597008228302,-0.20137304067611694,-0.19077681005001068,0.30220016837120056,-0.0797252431511879,0.4273991882801056,-0.06242723390460014,0.1736340969800949,-0.23522168397903442,-0.3072488605976105,0.07864495366811752,0.0421142652630806,-0.10796236246824265},{0.3071528375148773,0.25427791476249695,0.08967258781194687,0.3031032383441925,-0.21054616570472717,0.38637253642082214,0.0006638859631493688,0.1425006091594696,-0.302223265171051,0.17533573508262634,0.273517370223999,0.06758008152246475,0.1697036325931549,0.09774882346391678,0.28650668263435364,0.14197418093681335,0.274441659450531,0.428907185792923,-0.23689116537570953,-0.2141246348619461,-0.2612423002719879,0.05041781812906265,0.24322980642318726,0.30649155378341675,0.2712933421134949,-0.15599140524864197,0.36986008286476135,-0.01739507168531418,0.04583269730210304,0.25336042046546936,0.41505229473114014,-0.16052892804145813},{-0.25562044978141785,-0.3906555771827698,0.003397469175979495,0.16689257323741913,0.08230774849653244,0.1627216339111328,0.2610451877117157,0.11264783889055252,0.19610129296779633,0.046058863401412964,0.22074423730373383,0.20824480056762695,-0.30948200821876526,0.09154670685529709,0.19070535898208618,0.2212723046541214,0.012662249617278576,-0.3804304301738739,-0.005559141281992197,0.10524049401283264,0.28785136342048645,-0.28721290826797485,-0.07135366648435593,-0.14839349687099457,-0.12133386731147766,-0.14961844682693481,0.04094771295785904,-0.26813724637031555,-0.05891851708292961,-0.014809319749474525,0.015102717094123363,0.027223801240324974},{-0.2383265644311905,0.11516785621643066,0.23244993388652802,-0.06153728812932968,-0.2182401567697525,-0.16643936932086945,0.10143912583589554,0.29489147663116455,0.2008025199174881,-0.2508350610733032,0.41913360357284546,0.06083124503493309,-0.11165313422679901,0.33606186509132385,0.04724457487463951,-0.03204696625471115,0.13894148170948029,0.11223641037940979,-0.11531003564596176,-0.27509433031082153,0.19339849054813385,-0.1969982385635376,0.17514361441135406,0.016193710267543793,0.4084476828575134,0.0984443724155426,-0.08940151333808899,-0.04169706255197525,-0.04559926688671112,-0.16772066056728363,0.22131527960300446,0.4021512567996979},{0.20820049941539764,-0.07828989624977112,0.3271454870700836,-0.1053047701716423,-0.3994671404361725,0.32990124821662903,-0.1712418645620346,0.0767255425453186,-0.01163682620972395,0.0011781887151300907,0.29950785636901855,0.033077895641326904,-0.059025052934885025,0.007875646464526653,-0.3797304332256317,-0.07311119139194489,-0.028916779905557632,-0.1341540515422821,-0.4026932716369629,-0.11484108865261078,0.18194036185741425,-0.311002641916275,-0.14887195825576782,-0.2074144333600998,0.06734167039394379,-0.03321818262338638,0.27999451756477356,-0.07104944437742233,-0.21232688426971436,0.2554326057434082,0.2858569324016571,-0.26789647340774536},{0.07515523582696915,0.24778786301612854,-0.1431998908519745,0.2867951989173889,-0.23011748492717743,0.09206315129995346,-0.22946588695049286,-0.2726355195045471,-0.021636156365275383,-0.14857937395572662,0.05251036584377289,-0.13337938487529755,-0.33410224318504333,-0.11805698275566101,-0.015191960148513317,-0.03730257973074913,0.019411731511354446,0.07136782258749008,-0.39728429913520813,0.10970833152532578,0.19348594546318054,0.18196600675582886,-0.24520671367645264,0.10163533687591553,0.094602070748806,0.2497914731502533,0.14878761768341064,0.3075752556324005,-0.04936481639742851,0.08693567663431168,-0.09796919673681259,-0.15177857875823975},{-0.196034774184227,-0.07961315661668777,0.28715482354164124,0.23073549568653107,0.3430541455745697,0.01590501144528389,-0.15899665653705597,-0.18579499423503876,0.21877019107341766,0.027397368103265762,-0.21631652116775513,-0.06838458776473999,0.09616182744503021,-0.1695898324251175,0.08545480668544769,0.18216393887996674,-0.03514156490564346,0.10305167734622955,-0.13907772302627563,-0.16894173622131348,-0.2739207148551941,0.03705979883670807,0.09844793379306793,0.2605521082878113,-0.11891952902078629,-0.09296541661024094,-0.12299890071153641,-0.026557596400380135,-0.05351254716515541,0.08053459972143173,-0.012575531378388405,0.2943917512893677},{-0.25812217593193054,-0.058627668768167496,0.2653098404407501,0.22172953188419342,-0.053094808012247086,0.04038805514574051,-0.20175381004810333,-0.2457224726676941,0.25886526703834534,0.12055198103189468,-0.06260297447443008,-0.34903040528297424,-0.1310080736875534,0.16319459676742554,0.26738443970680237,0.23868992924690247,0.17904789745807648,0.11775617301464081,0.3565960228443146,0.4309460520744324,0.15479789674282074,0.4482329487800598,-0.11637713760137558,-0.13885226845741272,-0.11677848547697067,0.333710640668869,0.013510600663721561,-0.04980313405394554,-0.22359567880630493,-0.3126745820045471,-0.026631901040673256,0.08208892494440079},{-0.30470776557922363,0.15291719138622284,-0.2323455661535263,0.30181393027305603,0.08369044959545135,0.2572716474533081,-0.2540447413921356,0.16306595504283905,0.34277522563934326,-0.2584517002105713,-0.33095839619636536,0.351772665977478,-0.3233780264854431,0.30682456493377686,-0.04836678132414818,0.33714231848716736,0.4054153859615326,-0.0049639251083135605,-0.1332733929157257,0.21666601300239563,0.25271856784820557,0.06098094582557678,0.06346628814935684,0.01019983272999525,0.09260900318622589,-0.01179742906242609,0.28252020478248596,-0.07773799449205399,0.24224402010440826,0.23012439906597137,-0.3254067599773407,0.21785211563110352},{-0.09513159841299057,0.19819346070289612,0.20281922817230225,-0.049354538321495056,0.29359281063079834,0.32286325097084045,-0.06664501875638962,-0.045486245304346085,0.23311156034469604,-0.163688063621521,-0.023683445528149605,-0.10208969563245773,0.18385209143161774,-0.43182024359703064,0.17820867896080017,0.4649081826210022,0.19310712814331055,0.03180483728647232,-0.01847134344279766,-0.2963801324367523,-0.020172899588942528,0.08717063814401627,0.08939533680677414,0.056098438799381256,-0.04746725782752037,-0.05507710576057434,0.21340422332286835,-0.18095235526561737,0.20237377285957336,0.032644692808389664,0.5287833213806152,-0.05964551120996475},{0.03969130292534828,0.3271774351596832,0.2003471851348877,0.29818880558013916,0.04631291702389717,-0.10234086960554123,0.2499333769083023,0.06664522737264633,-0.2938758432865143,0.13590791821479797,0.19459721446037292,0.16211801767349243,-0.10267799347639084,0.14196830987930298,0.21033936738967896,-0.2104366421699524,0.2822880744934082,0.20432603359222412,-0.3037249445915222,-0.04262276366353035,-0.30718401074409485,-0.21853159368038177,0.12118642032146454,0.15664608776569366,-0.22522267699241638,0.09025590866804123,-0.08800901472568512,0.2814905345439911,-0.004128841683268547,-0.04776225984096527,-0.0031559988856315613,0.2893298864364624},{0.3765619695186615,-0.011046532541513443,0.26433467864990234,-0.15271224081516266,0.347904771566391,-0.10947918146848679,0.3924640119075775,0.07436693459749222,-0.2434627115726471,0.24688977003097534,-0.06814221292734146,0.11101312935352325,0.03826001659035683,0.12362278997898102,0.2406880110502243,-0.2770417332649231,0.23041440546512604,0.02778441272675991,-0.24651113152503967,0.11988513916730881,-0.299437940120697,0.14326198399066925,0.15682245790958405,0.2951696813106537,0.23801390826702118,0.3184736967086792,0.15028952062129974,0.19914066791534424,-0.1375904083251953,-0.07691085338592529,-0.36442622542381287,0.014484050683677197},{-0.0774339884519577,0.14015094935894012,-0.2031562775373459,-0.14904482662677765,0.19009259343147278,-0.10667161643505096,0.13653811812400818,-0.026480384171009064,0.22913174331188202,-0.3525019884109497,0.012050789780914783,-0.24127943813800812,-0.01535669807344675,-0.14822439849376678,-0.22336818277835846,0.19005227088928223,0.31532350182533264,-0.13824321329593658,-0.1957886666059494,0.3013218343257904,0.14027076959609985,-0.2589758336544037,-0.11005847156047821,-0.2701675295829773,-0.3388967216014862,-0.12016912549734116,-0.24446433782577515,0.08624935150146484,-0.11659238487482071,-0.241751566529274,-0.2753117084503174,0.18742194771766663},{0.18064753711223602,-0.22616265714168549,-0.037579379975795746,0.2016887217760086,0.3099767565727234,-0.09111862629652023,0.1288517266511917,0.2142011821269989,0.2952973246574402,-0.2183385193347931,-0.012589354999363422,0.2762796878814697,0.2731604278087616,0.060678645968437195,-0.27361929416656494,-0.21076498925685883,-0.21691326797008514,0.05521409958600998,-0.25341978669166565,0.17627084255218506,-0.2722746431827545,-0.24257194995880127,-0.11636233329772949,0.1778785139322281,-0.05232727527618408,0.05737655609846115,0.10700827091932297,-0.3353794515132904,0.061859916895627975,-0.22467687726020813,-0.43371883034706116,-0.19985489547252655},{-0.25368690490722656,-0.07098893076181412,0.19603991508483887,0.07983459532260895,0.11220084875822067,0.1820814460515976,0.13270318508148193,0.03303726390004158,-0.18150939047336578,0.260764479637146,-0.1315663456916809,0.2599664628505707,-0.13093286752700806,-0.2028145045042038,-0.23882517218589783,0.22210027277469635,0.15768302977085114,-0.015799397602677345,-0.22779318690299988,0.10318656265735626,-0.362793892621994,-0.08998021483421326,0.27405714988708496,-0.2441946417093277,0.1549801081418991,0.039957333356142044,-0.005744099151343107,0.037005651742219925,0.07047199457883835,0.31276845932006836,0.2864415645599365,-0.1806335747241974},{0.39963290095329285,0.08599740266799927,-0.24939411878585815,0.11996200680732727,-0.15132233500480652,-0.29995280504226685,-0.16646873950958252,-0.20680734515190125,-0.27896180748939514,-0.07022268325090408,-0.2805473804473877,0.22224250435829163,0.030121687799692154,0.2833433449268341,-0.18632815778255463,0.10186245292425156,-0.25919485092163086,0.2079743593931198,-0.14655263721942902,0.06513999402523041,-0.057345520704984665,0.07714438438415527,0.05669355019927025,-0.2689456045627594,0.2896278202533722,-0.3368343412876129,0.2860015332698822,0.22147232294082642,0.2370615303516388,0.37232938408851624,0.2094108760356903,-0.1510988026857376},{-0.008630570024251938,0.3665081858634949,-0.06632739305496216,0.234334796667099,0.12526972591876984,0.15377695858478546,0.3362160921096802,0.06777582317590714,-0.3130315840244293,-0.08603780716657639,-0.1794307827949524,0.10136417299509048,0.19065450131893158,0.14383044838905334,0.020287971943616867,0.1880960762500763,-0.303405225276947,0.09858481585979462,0.04682851582765579,0.1512443572282791,-0.36703234910964966,0.24591164290905,0.009492740035057068,0.026276202872395515,0.01603318378329277,0.31440722942352295,0.08311102539300919,-0.03887013718485832,-0.13383255898952484,0.04226423799991608,-0.07915803790092468,-0.2289809286594391},{-0.06946500390768051,-0.09032752364873886,0.12298255413770676,0.1645498275756836,-0.018213355913758278,0.20784533023834229,0.03936474770307541,0.12342430651187897,0.36004331707954407,0.12113833427429199,0.0775771290063858,-0.17361117899417877,-0.02675751782953739,-0.3662824332714081,-0.10879833251237869,0.11762502789497375,0.1800745725631714,-0.44790470600128174,0.13649335503578186,-0.07621034234762192,0.206055149435997,0.31166982650756836,0.10943127423524857,-0.30025938153266907,0.19102618098258972,0.14825360476970673,0.15102022886276245,0.05687224864959717,-0.1013636589050293,-0.009840665385127068,0.1027761921286583,-0.2069101333618164},{-0.049524884670972824,-0.1761791855096817,0.3314976692199707,-0.27754703164100647,0.18662767112255096,0.2655145525932312,0.09773531556129456,-0.14755892753601074,-0.22964923083782196,0.14513185620307922,0.10278681665658951,0.3078767657279968,-0.01727225072681904,-0.033396124839782715,0.06803745031356812,0.2145213633775711,0.012796160764992237,0.12107501178979874,-0.03797120600938797,-0.2938182055950165,0.29918745160102844,-0.05853952467441559,0.06562797725200653,0.03524285554885864,0.11422465741634369,0.167397141456604,-0.07009323686361313,0.08397018909454346,-0.03332546353340149,-0.1901898980140686,-0.08171936869621277,0.12697654962539673},{-0.3872160315513611,-0.1936485469341278,-0.08721968531608582,-0.14599961042404175,0.0907021164894104,0.18891286849975586,-0.2223714292049408,0.12312164157629013,-0.023409755900502205,0.26555928587913513,-0.049097880721092224,-0.06394520401954651,-0.29449787735939026,0.15702484548091888,0.16301581263542175,-0.055067356675863266,0.040770385414361954,0.32563281059265137,-0.036795057356357574,0.05402982234954834,0.04341808333992958,0.0432993620634079,0.056771550327539444,0.1942683309316635,-0.0634516030550003,-0.30615827441215515,-0.03058723546564579,-0.2606618404388428,0.04757101833820343,0.2551928162574768,-0.12173957377672195,0.13260477781295776},{0.29339897632598877,0.309013694524765,0.13261379301548004,-0.2620570957660675,-0.4403480589389801,-0.06518565863370895,-0.20207799971103668,0.3543359935283661,0.1867130547761917,0.16251470148563385,-0.20998193323612213,-0.24073836207389832,0.26544445753097534,-0.1778654158115387,-0.07694938033819199,-0.13936853408813477,-0.26710447669029236,-0.28725019097328186,-0.20024164021015167,-0.24062104523181915,-0.07630898803472519,-0.44945576786994934,-0.24979019165039062,-0.19877834618091583,0.005231788847595453,0.1536903828382492,0.2210669070482254,0.35283470153808594,-0.14619486033916473,-0.025910770520567894,0.1569715291261673,-0.1954924613237381},{0.08538493514060974,0.20469889044761658,0.1609918177127838,0.1271512359380722,0.07308962941169739,-0.2816277742385864,-0.13156044483184814,-0.21534623205661774,0.0728975236415863,-0.3125070035457611,-0.1953253597021103,-0.12447179108858109,-0.10183467715978622,-0.06476554274559021,0.02967309206724167,-0.23503559827804565,0.35897889733314514,-0.143992081284523,0.023689953610301018,-0.08344302326440811,0.05335421487689018,0.33899742364883423,0.07841390371322632,0.1687089204788208,-0.07060982286930084,0.03884124755859375,0.039495814591646194,-0.12131890654563904,-0.31050345301628113,-0.15008093416690826,-0.0179227814078331,-0.17138659954071045},{0.06347959488630295,0.08176109939813614,-0.3183823525905609,0.08195293694734573,-0.043702952563762665,0.2870420515537262,0.2475418895483017,-0.2702710032463074,-0.26231011748313904,-0.002266869880259037,0.08742791414260864,0.01691780425608158,-0.30498605966567993,-0.17299599945545197,0.36994457244873047,-0.020595798268914223,0.2535873055458069,0.4036248028278351,-0.1900956630706787,0.05488130450248718,-0.11555556207895279,-0.14092272520065308,0.16228936612606049,0.2686617076396942,0.15985195338726044,0.23931220173835754,0.1612422615289688,-0.008753706701099873,-0.09490619599819183,0.17951425909996033,-0.08138657361268997,0.03846157714724541},{0.24420484900474548,-0.1321091651916504,0.3420023024082184,0.013465046882629395,0.03972279652953148,0.10153138637542725,0.12328355014324188,-0.13008378446102142,0.20186491310596466,0.1622152328491211,-0.2772013545036316,0.13154496252536774,-0.07895810902118683,0.16916023194789886,0.02206149324774742,-0.2942253351211548,-0.13779906928539276,-0.3424126207828522,-0.05686582997441292,0.13427908718585968,0.31402483582496643,-0.1457757204771042,-0.12135917693376541,-0.1414739191532135,0.12031707912683487,0.012218496762216091,0.10089318454265594,0.3648742735385895,0.26935335993766785,-0.19588783383369446,-0.1427990198135376,0.19371548295021057},{0.20236366987228394,-0.0629742294549942,-0.10613351315259933,0.29960760474205017,-0.11070329695940018,0.3169495761394501,0.18732836842536926,0.23917900025844574,-0.12379029393196106,0.06105061620473862,0.2628585696220398,-0.18731500208377838,-0.1272384226322174,0.19092056155204773,0.014965169131755829,-0.07706911861896515,0.1525006890296936,0.08997438848018646,0.1043156161904335,-0.14463430643081665,0.15283456444740295,0.1262097954750061,-0.0713263601064682,0.2217521369457245,-0.03375024348497391,-0.06306228786706924,0.08938556164503098,-0.11719860136508942,0.09305683523416519,0.3638765215873718,-0.029941465705633163,0.10879673063755035},{-0.023174569010734558,-0.22961120307445526,0.09416183829307556,0.3543378710746765,0.25497230887413025,0.05761779844760895,0.23462454974651337,0.22473065555095673,-0.13393643498420715,0.11056145280599594,-0.0871567577123642,0.11743216216564178,-0.23569650948047638,0.127614825963974,0.08470160514116287,-0.06153842434287071,0.30166327953338623,0.1336917281150818,0.11906120926141739,-0.17377042770385742,-0.06480149924755096,0.3181062340736389,0.2815346419811249,0.12318502366542816,0.10590552538633347,0.2853655517101288,0.02521679550409317,0.1829032450914383,-0.2566242814064026,-0.15582749247550964,0.1947876662015915,0.14352460205554962},{-0.09335077553987503,0.28679725527763367,0.22418327629566193,0.04032735154032707,-0.047071896493434906,0.16799575090408325,0.3282366693019867,-0.014721144922077656,0.15101826190948486,-0.16360490024089813,0.23985667526721954,-0.29616352915763855,-0.3577525019645691,-0.3581985533237457,-0.02750539220869541,0.33298295736312866,0.08299402892589569,-0.220394566655159,0.1668502539396286,0.22729560732841492,0.023635506629943848,-0.06406751275062561,-0.022194551303982735,-0.290996789932251,0.22612982988357544,0.05216281861066818,0.13798381388187408,-0.3673664331436157,0.16845448315143585,-0.06752292811870575,0.33127743005752563,-0.09652457386255264},{0.19458505511283875,0.13009792566299438,0.26484212279319763,-0.27924856543540955,0.22199159860610962,0.14872542023658752,0.22541537880897522,-0.10854117572307587,-0.34216639399528503,0.061628829687833786,0.05654214695096016,-0.16294719278812408,0.07385177910327911,-0.09300274401903152,0.13368475437164307,-0.11016341298818588,0.3266914188861847,-0.0933888778090477,-0.15987727046012878,0.02850513719022274,0.14056992530822754,-0.46334409713745117,0.2869151830673218,-0.24132613837718964,-0.19524551928043365,0.07341372966766357,-0.2322029173374176,0.31226620078086853,0.08848947286605835,-0.21369902789592743,0.1477663815021515,-0.01630326732993126}};
static const float layer_2_weight[32][32] = {{-0.3235442638397217,0.16125541925430298,-0.047896627336740494,0.22971674799919128,-0.3931002914905548,-0.10690733790397644,-0.061891425400972366,-0.13778868317604065,0.1971537172794342,-0.21158555150032043,-0.11955729871988297,0.13824117183685303,-0.1457241177558899,0.28497225046157837,0.10758960247039795,-0.22414812445640564,0.30234575271606445,-0.10317783057689667,-0.08167020976543427,-0.5419303774833679,0.09879356622695923,0.3240191638469696,-0.08411594480276108,-0.11427170783281326,0.1601482629776001,0.1720944344997406,-0.2209525853395462,0.15209992229938507,-0.250296413898468,-0.22141413390636444,0.21398210525512695,-0.11592628061771393},{0.26933783292770386,0.2662500739097595,0.2147115170955658,-0.012087344191968441,0.01593407429754734,-0.181992769241333,0.07684838771820068,0.19109617173671722,-0.34373563528060913,-0.10949520021677017,-0.31817200779914856,-0.0007084831595420837,-0.3192300796508789,0.06417030841112137,0.20435136556625366,0.02456243708729744,0.27500396966934204,-0.27310922741889954,-0.046612340956926346,0.04593411087989807,0.09958722442388535,-0.02106093242764473,0.2560071647167206,0.012331021949648857,-0.26774224638938904,-0.17806868255138397,0.28113994002342224,-0.21845325827598572,0.06621141731739044,0.24295663833618164,0.00402907095849514,0.1335754692554474},{0.18337303400039673,-0.37292221188545227,0.06707124412059784,0.18499748408794403,0.18027915060520172,0.22199977934360504,0.07447901368141174,0.05666467919945717,0.07661924511194229,0.0908232107758522,0.22090062499046326,0.16931281983852386,-0.21090330183506012,-0.21742236614227295,0.22266827523708344,0.24393987655639648,0.2570166289806366,0.10233757644891739,0.19667333364486694,-0.004707952030003071,-0.04061673954129219,0.2702507972717285,0.1666077971458435,0.11763762682676315,0.027770239859819412,-0.11437328159809113,0.2962425649166107,0.1087045967578888,-0.006781122647225857,0.32285353541374207,0.3058866858482361,0.30114254355430603},{-0.044848743826150894,0.0730677917599678,-0.2625671327114105,-0.16404877603054047,-0.29258930683135986,-0.27811717987060547,0.22033822536468506,-0.12098509073257446,0.2305663675069809,-0.06351232528686523,-0.27547141909599304,0.23606865108013153,0.006524388212710619,-0.36028754711151123,-0.29062390327453613,-0.20319317281246185,0.2745652496814728,-0.1340075582265854,0.13807591795921326,0.39323320984840393,0.3022770583629608,-0.2861230671405792,0.3137315511703491,-0.06439446657896042,-0.32340940833091736,0.36206284165382385,-0.3217543065547943,-0.022287366911768913,0.21089164912700653,0.14121709764003754,0.12538732588291168,-0.2638387382030487},{-0.09876354038715363,-0.06491874158382416,0.008942866697907448,-0.20583926141262054,0.22571545839309692,-0.1485675424337387,-0.08438678085803986,-0.0848081111907959,-0.31442803144454956,0.28936660289764404,0.06277398020029068,0.21773222088813782,-0.030361557379364967,0.1550586223602295,0.2024855613708496,-0.1743493378162384,-0.28647392988204956,-0.13238999247550964,-0.06928644329309464,-0.28542783856391907,0.1736246645450592,0.250593364238739,0.28070732951164246,-0.043833810836076736,-0.12305783480405807,-0.1684834361076355,-0.20825998485088348,-0.008443424478173256,0.1986568421125412,-0.04718710109591484,-0.1432836353778839,-0.1505686640739441},{-0.03916381672024727,-0.23399221897125244,-0.25915637612342834,-0.1615181714296341,-0.1300114095211029,-0.3444949686527252,-0.0084766186773777,0.0032822061330080032,-0.20319554209709167,-0.24341313540935516,-0.1640295535326004,0.2351544201374054,0.09736201912164688,0.2161131501197815,-0.055857155472040176,-0.09596873819828033,-0.15433011949062347,0.03368007391691208,0.3270840346813202,0.11042774468660355,0.3284905254840851,0.3682696521282196,0.33233264088630676,0.27466320991516113,-0.27708157896995544,-0.1456989198923111,0.30951762199401855,0.03584122285246849,0.355956494808197,0.1816522628068924,-0.05380026251077652,-0.3830210268497467},{0.3423542082309723,-0.27780231833457947,-0.1444411724805832,0.1924564242362976,0.1848251074552536,0.27915075421333313,0.24269922077655792,0.2976798713207245,-0.09714829176664352,0.14174799621105194,-0.04388223960995674,0.2367764413356781,-0.022884957492351532,0.26286938786506653,-0.018470708280801773,0.2019478678703308,-0.14861415326595306,-0.11711874604225159,0.04556361585855484,0.16764211654663086,-0.25123581290245056,0.05864850804209709,0.2124805748462677,-0.004524717573076487,0.14162610471248627,-0.2192302942276001,-0.09365065395832062,-0.07990629971027374,0.22040696442127228,-0.11720763146877289,-0.16628091037273407,-0.2877849042415619},{0.4095505475997925,-0.15739452838897705,-0.01037988718599081,0.19499407708644867,-0.3092680871486664,0.15394513309001923,0.06868584454059601,-0.27769964933395386,-0.20956221222877502,-0.18224167823791504,0.03680345416069031,0.09421141445636749,-0.09124237298965454,-0.3603907525539398,0.16138045489788055,0.3813214898109436,0.07638552784919739,0.01381636131554842,0.27769774198532104,-0.2869223654270172,-0.06103828176856041,-0.17276594042778015,0.2351342737674713,0.22268269956111908,-0.1855154186487198,-0.1673269122838974,-0.3405068814754486,0.27508047223091125,-0.21774639189243317,-0.20203252136707306,-0.19965067505836487,-0.20466233789920807},{0.09332644194364548,-0.37335923314094543,-0.01781800575554371,-0.5368792414665222,0.020438576117157936,0.1414271742105484,0.20195072889328003,-0.5014275312423706,-0.3607059717178345,0.13066068291664124,0.1730010211467743,0.05001603439450264,0.11009269952774048,0.21635733544826508,0.20074862241744995,0.22919544577598572,-0.22877885401248932,-0.08538305014371872,-0.014540336094796658,0.11848632246255875,0.005935776047408581,0.19713817536830902,0.00033174059353768826,0.19725972414016724,-0.09038970619440079,-0.41097569465637207,0.05925852805376053,0.19944116473197937,0.21561650931835175,0.1841670572757721,0.3006569743156433,0.0036933450028300285},{-0.08714668452739716,0.32227087020874023,0.11903833597898483,-0.07823750376701355,-0.35764774680137634,0.029671216383576393,-0.3213770389556885,0.08940494060516357,0.26532819867134094,-0.03952648863196373,0.1799536943435669,-0.02998555265367031,0.022731762379407883,-0.13440708816051483,-0.17413592338562012,-0.142752006649971,0.31656602025032043,0.292233943939209,-0.03144729509949684,0.17691731452941895,-0.34567034244537354,0.36159804463386536,0.3125622868537903,0.05845756456255913,-0.4225001633167267,0.2227264791727066,0.21210838854312897,0.16646619141101837,-0.1400875449180603,0.28889888525009155,0.08239220827817917,-0.022562935948371887},{0.07014068961143494,-0.21437646448612213,0.2548457086086273,0.28107020258903503,0.10166992992162704,0.2240750938653946,0.272589772939682,-0.02707096002995968,-0.24742817878723145,0.09940627217292786,-0.17973235249519348,0.16901074349880219,0.11395347118377686,-0.27659186720848083,-0.1941051036119461,0.1360194832086563,-0.37598916888237,-0.3356892168521881,-0.14382179081439972,0.10078869014978409,0.17262089252471924,0.19904617965221405,0.0987592414021492,-0.20699337124824524,0.1577351838350296,-0.00740356370806694,-0.18443116545677185,0.11534018069505692,0.12187299877405167,-0.26073533296585083,-0.018565049394965172,0.2779495418071747},{0.05468260496854782,0.31832703948020935,0.11449753493070602,0.059215351939201355,0.036641061305999756,0.2094002515077591,0.18980702757835388,0.34253814816474915,0.12440630793571472,0.30780187249183655,-0.39203399419784546,0.2620360553264618,0.07761965692043304,-0.31400731205940247,0.048991959542036057,0.36010614037513733,0.23214934766292572,0.2578064799308777,0.3644852340221405,-0.2989526391029358,0.3401264250278473,0.21837836503982544,-0.07084374874830246,-0.3011392056941986,-0.404126912355423,-0.040608376264572144,-0.04850885644555092,-0.09144139289855957,0.04180051013827324,0.10979654639959335,-0.23085153102874756,0.0008432693430222571},{-0.09764622151851654,0.22371023893356323,-0.17540402710437775,-0.11521149426698685,-0.3438563346862793,0.032566264271736145,-0.09072476625442505,-0.0011695486027747393,0.351495623588562,-0.12106732279062271,0.468842089176178,0.06964407116174698,-0.2536242604255676,0.15151335299015045,0.3636772632598877,0.21889103949069977,0.279707670211792,-0.08080367743968964,0.027888692915439606,-0.21024659276008606,0.07535086572170258,0.3798224627971649,0.05420302227139473,-0.129154771566391,-0.03683476150035858,-0.1464807093143463,-0.2757546603679657,-0.05646943300962448,0.17875486612319946,0.38842540979385376,-0.34677180647850037,0.3139505088329315},{-0.2048647701740265,-0.022214101627469063,-0.2701292335987091,0.02709227241575718,-0.2914707362651825,0.1855214685201645,-0.2614912986755371,0.04467706009745598,-0.25170114636421204,0.1792459934949875,-0.502951443195343,0.307178258895874,-0.10923948138952255,-0.2435266673564911,-0.39588478207588196,-0.16721878945827484,0.18854518234729767,-0.013472620397806168,0.2268049567937851,0.09844809025526047,-0.13308069109916687,-0.1290673464536667,0.1664288341999054,-0.042263854295015335,-0.3890700936317444,0.11013118177652359,-0.3294329345226288,0.033718228340148926,-0.26699087023735046,-0.3669126331806183,-0.2633386552333832,-0.09171734005212784},{-0.22408680617809296,0.20734719932079315,-0.13850365579128265,-0.01737203821539879,0.11116588860750198,-0.3289332985877991,-0.15501052141189575,0.23230192065238953,-0.20975929498672485,-0.04360704496502876,-0.3696306645870209,-0.11557788401842117,0.05145324021577835,0.1465573012828827,0.11477234959602356,-0.11318715661764145,-0.2653665840625763,0.016874749213457108,0.25920912623405457,-0.08863689750432968,0.18896077573299408,-0.17900961637496948,0.03368416428565979,0.030369006097316742,-0.19729971885681152,0.2750006318092346,-0.02795167826116085,-0.2146802842617035,0.19146950542926788,-0.26868006587028503,0.22735390067100525,-0.2700842320919037},{0.3146142363548279,-0.4522102475166321,0.3769427239894867,0.029577791690826416,0.10405921936035156,-0.2934828996658325,0.18876105546951294,-0.08556142449378967,-0.37090864777565,0.1506969928741455,0.15231700241565704,0.04582099989056587,0.15104460716247559,0.09772850573062897,0.07746551930904388,0.15017753839492798,-0.3013244867324829,-0.547356367111206,0.3336734473705292,0.2821142077445984,0.14179393649101257,0.15542253851890564,0.12727876007556915,-0.008386741392314434,0.2916903793811798,0.15641148388385773,-0.20716024935245514,0.2272598147392273,-0.08591802418231964,0.03318866342306137,-0.29289689660072327,0.174984872341156},{0.257356196641922,-0.16596533358097076,0.03622608259320259,-0.3263016939163208,-0.1367797702550888,-0.15829864144325256,0.1039390042424202,-0.3294932246208191,-0.4441298842430115,0.2463434934616089,-0.019804563373327255,0.12814576923847198,-0.000803242321126163,0.2814701199531555,-0.2771510183811188,-0.42922791838645935,0.24290437996387482,-0.20995913445949554,0.09715277701616287,0.14953778684139252,0.08170570433139801,-0.09281009435653687,-0.005610376130789518,0.08462020009756088,-0.1420225203037262,0.2301402986049652,0.061981670558452606,-0.07123468816280365,-0.0423186719417572,-0.23031403124332428,-0.13751478493213654,-0.31805920600891113},{0.11505404859781265,0.0721467137336731,0.0003677791100926697,0.2459006905555725,0.3620978891849518,-0.4090244770050049,0.21885594725608826,0.3949652314186096,-0.2187398374080658,-0.2354755401611328,-0.5002604722976685,-0.39115479588508606,-0.06245952472090721,-0.24192631244659424,-0.0473426952958107,-0.22161009907722473,-0.26531147956848145,0.0435572974383831,-0.02183573506772518,0.15172386169433594,0.15179762244224548,0.05997965857386589,-0.2700784504413605,-0.15957671403884888,0.11724959313869476,0.09168169647455215,-0.29760369658470154,-0.33104175329208374,-0.10518883168697357,-0.003205487271770835,-0.21979837119579315,-0.47096341848373413},{0.07788373529911041,-0.22509880363941193,-0.12094373255968094,-0.13275843858718872,0.05158688873052597,0.09911349415779114,0.08834167569875717,-0.2201753556728363,0.10416928678750992,0.12562793493270874,0.42821425199508667,-0.07696235179901123,0.29776328802108765,-0.0002483889984432608,-0.291038453578949,-0.34791675209999084,0.12753047049045563,-0.10050752758979797,-0.007691253442317247,0.30328190326690674,-0.3137674331665039,-0.4344397187232971,-0.04495637118816376,0.21126419305801392,-0.07867390662431717,0.00821368582546711,-0.2885121703147888,-0.06377418339252472,0.26298999786376953,-0.4071250259876251,0.31955355405807495,0.11746013909578323},{-0.1294316202402115,0.16290314495563507,-0.26077091693878174,-0.35895848274230957,-0.2856726348400116,0.11368472129106522,0.34353330731391907,0.009124737232923508,0.060637298971414566,-0.13636305928230286,-0.3088776469230652,0.38876259326934814,-0.025415504351258278,-0.018772298470139503,0.14103615283966064,0.08644920587539673,-0.23321282863616943,-0.045899756252765656,-0.30441564321517944,-0.1624635010957718,-0.09809249639511108,-0.186700701713562,-0.13940341770648956,-0.08340941369533539,0.2468017339706421,0.005199626088142395,0.16400812566280365,0.23863209784030914,0.013963397592306137,0.01760910078883171,-0.25078096985816956,0.021829210221767426},{-0.12042786926031113,0.18251082301139832,-0.1017192155122757,-0.34700629115104675,0.33209213614463806,0.13215892016887665,-0.1377447098493576,-0.15773625671863556,0.09017166495323181,0.18371251225471497,0.38361164927482605,0.10291896760463715,0.19633622467517853,-0.02457282692193985,0.17820683121681213,0.004236993845552206,0.192260280251503,0.041495244950056076,-0.2549164295196533,0.2647985816001892,0.3544740676879883,-0.17747199535369873,0.10328293591737747,0.20663106441497803,0.2577674388885498,-0.3173571527004242,-0.038705043494701385,-0.09702780097723007,0.34501057863235474,-0.13842250406742096,0.07283451408147812,0.23702824115753174},{0.10260789096355438,-0.24042457342147827,0.23098298907279968,-0.3718450367450714,0.15645535290241241,-0.3010188639163971,-0.12552997469902039,-0.28644582629203796,0.09631748497486115,0.4440319538116455,-0.5233460068702698,-0.17779523134231567,0.3967933654785156,0.15693432092666626,-0.08742525428533554,-0.4529915153980255,0.06534341722726822,-0.1195627897977829,-0.1190575584769249,0.31447699666023254,-0.2173386514186859,-0.4551834762096405,0.24025169014930725,0.13555040955543518,-0.11522366106510162,0.1601666957139969,0.24272030591964722,-0.22230279445648193,-0.10919040441513062,-0.33422720432281494,0.31369099020957947,-0.0029028847347944975},{0.1301424354314804,0.05217176675796509,0.1619851440191269,-0.09502061456441879,0.30155348777770996,-0.014594819396734238,0.18625140190124512,0.1267402619123459,0.13881751894950867,0.28594037890434265,0.01218558382242918,-0.11533825099468231,0.11345633119344711,-0.3002271354198456,0.020960727706551552,-0.14217351377010345,-0.3833467364311218,-0.3524293899536133,0.26457783579826355,0.0881040170788765,-0.14403267204761505,-0.10188720375299454,-0.19200265407562256,0.03884142264723778,-0.26756757497787476,0.11550404131412506,0.32349544763565063,-0.1250947266817093,-0.12642605602741241,0.13194063305854797,0.003233357099816203,-0.38517314195632935},{0.018757056444883347,0.22156721353530884,0.055457696318626404,-0.2101963758468628,-0.11096180230379105,0.04534373804926872,0.0907425656914711,0.020142974331974983,0.3421822786331177,-0.10823603719472885,-0.17831484973430634,0.04502999410033226,-0.09863398969173431,0.21837252378463745,-0.1691252589225769,0.19560253620147705,-0.16892188787460327,-0.0020345854572951794,0.04524228349328041,0.20527935028076172,0.024501021951436996,-0.30407413840293884,0.1866368055343628,-0.16622982919216156,-0.24455526471138,0.22436489164829254,0.11735514551401138,0.06800718605518341,-0.277494877576828,0.24461601674556732,0.1691122204065323,-0.3384298086166382},{0.2830437123775482,0.14748136699199677,-0.08607202023267746,-0.0044470313005149364,-0.15719395875930786,0.2331046760082245,0.26276594400405884,-0.00859423354268074,-0.26695993542671204,0.3163137137889862,-0.4192321002483368,-0.00990673340857029,0.013942612335085869,-0.15117864310741425,-0.3248288929462433,0.36424148082733154,0.12651851773262024,-0.16988062858581543,-0.08471450209617615,-0.15009424090385437,-0.02799922227859497,0.24842077493667603,0.2572186589241028,0.19864366948604584,-0.055580489337444305,-0.2470729649066925,0.012283842079341412,-0.03737175092101097,-0.28969311714172363,-0.0030018917750567198,-0.22905535995960236,-0.2629181742668152},{0.20644287765026093,0.12229610234498978,-0.17923738062381744,-0.3551717698574066,0.11138878017663956,0.2658761739730835,0.2654176652431488,-0.17201027274131775,-0.2561662197113037,0.2547382116317749,-0.00046824946184642613,-0.10112863779067993,0.23504023253917694,0.05921240895986557,-0.23642054200172424,0.1815217137336731,0.23289178311824799,-0.2040952444076538,0.3282809257507324,0.21638871729373932,0.1222042590379715,-0.014067116193473339,0.22617463767528534,-0.1860901117324829,0.07265207171440125,0.13626396656036377,0.2884645164012909,-0.016009895130991936,0.18437348306179047,0.2643861472606659,0.25035202503204346,0.02637000009417534},{-0.1527443379163742,-0.15782295167446136,0.353752076625824,0.10133277624845505,-0.1593826860189438,0.039040256291627884,0.021212754771113396,-0.22003920376300812,0.08067050576210022,0.04736234247684479,-0.1448935717344284,0.21416740119457245,0.08310166001319885,-0.13850925862789154,9.780339314602315e-05,0.09773195534944534,0.19848158955574036,-0.06039995327591896,-0.09435398876667023,-0.3663703203201294,0.033819880336523056,0.2996595501899719,0.2613821029663086,-0.07567783445119858,-0.06662487983703613,-0.1817445009946823,0.0381171815097332,-0.30677545070648193,-0.06618884205818176,-0.010330402292311192,-0.254713237285614,0.15131120383739471},{-0.2986851632595062,0.3485391139984131,-0.14397917687892914,-0.13941912353038788,0.13088680803775787,0.037434350699186325,0.07357161492109299,-0.27658239006996155,0.22952941060066223,0.29985368251800537,-0.21122927963733673,0.10138678550720215,0.15794387459754944,0.2447732836008072,0.2810806632041931,0.12416982650756836,-0.06883122771978378,-0.21673697233200073,0.0628916546702385,-0.33797410130500793,-0.047245875000953674,0.12299080193042755,0.15069721639156342,-0.15517403185367584,-0.3275526463985443,-0.1219954565167427,0.2537955939769745,0.10427147895097733,0.16556701064109802,0.2928280532360077,-0.2816740870475769,0.2696538269519806},{0.16680970788002014,0.105890654027462,0.12991149723529816,-0.160999596118927,0.0027945449110120535,0.20801103115081787,-0.19539116322994232,-0.28816646337509155,-0.07186735421419144,-0.2219948023557663,-0.03855396807193756,0.05422214791178703,0.05049886927008629,0.03165670484304428,0.02708127535879612,0.24334540963172913,-0.2091403603553772,-0.17983902990818024,0.06881096214056015,-0.13032865524291992,-0.11256195604801178,0.2714177668094635,-0.02691502869129181,0.2701402008533478,0.28938987851142883,0.31635960936546326,-0.13688330352306366,-0.10387489944696426,-0.16406245529651642,-0.23666121065616608,0.09656985104084015,-0.05584771931171417},{-0.15849514305591583,0.28428688645362854,0.1628163903951645,0.11082736402750015,-0.11323630809783936,-0.37531277537345886,-0.2870900630950928,-0.25130611658096313,0.09717607498168945,0.03480874001979828,0.10968189686536789,0.02567688561975956,-0.280668169260025,0.1054222360253334,-0.07905003428459167,0.04735081270337105,-0.1428031027317047,-0.2914177477359772,0.1565781533718109,0.03276422247290611,0.09664800763130188,0.028841329738497734,0.07620221376419067,-0.18438604474067688,0.2405756711959839,-0.15725906193256378,-0.37671369314193726,-0.2208024263381958,0.03672686219215393,-0.07430476695299149,-0.33258256316185,0.12854886054992676},{0.14227603375911713,-0.14648325741291046,0.04305942729115486,0.022168409079313278,-0.10167257487773895,0.20129548013210297,-0.23741291463375092,0.20345664024353027,-0.05679032579064369,0.2331971973180771,-0.07606060802936554,0.26683366298675537,-0.017425255849957466,-0.2661566734313965,0.2176307588815689,0.02622479572892189,-0.039941322058439255,-0.122991181910038,-0.09778286516666412,-0.03908047080039978,0.16744475066661835,0.4020269215106964,0.311637818813324,0.33533719182014465,0.2812177240848541,0.04499676078557968,-0.26301684975624084,0.21999850869178772,-0.21753612160682678,-0.11767737567424774,-0.2165108174085617,0.20045436918735504},{-0.24183176457881927,-0.11065442860126495,0.16100922226905823,0.19075320661067963,0.13102053105831146,-0.1610327810049057,0.36358994245529175,-0.1062207892537117,-0.008299734443426132,0.24989518523216248,0.051539111882448196,-0.016225691884756088,0.2943398654460907,0.11880570650100708,-0.33640962839126587,0.2632467746734619,-0.1460660696029663,0.10708015412092209,0.3125443458557129,-0.08931370824575424,0.3314906060695648,-0.17729789018630981,-0.013913954608142376,0.1285247951745987,-0.018044104799628258,0.20875312387943268,-0.068977490067482,-0.24526727199554443,-0.18402092158794403,-0.031000321730971336,0.04054725542664528,0.05337592959403992}};
static const float layer_3_weight[32][32] = {{-0.06718640774488449,-0.14723952114582062,0.034156616777181625,-0.055120982229709625,-0.43421101570129395,-0.022068368270993233,-0.4100830554962158,0.13914625346660614,-0.07547605037689209,-0.10736306011676788,0.05350615456700325,0.05651358142495155,-0.2518056631088257,0.01636664755642414,-0.18356256186962128,-0.27368199825286865,-0.08659784495830536,0.2219211459159851,0.1698768138885498,-0.19480180740356445,-0.2582321763038635,0.0060913716442883015,0.1888396441936493,-0.06959138810634613,0.16278702020645142,0.26089993119239807,-0.3462366461753845,0.2662317156791687,0.13675443828105927,0.3039039075374603,0.393515020608902,0.17619377374649048},{-0.426756352186203,-0.27380940318107605,-0.02661924809217453,0.14155039191246033,-0.10370562225580215,0.15379223227500916,0.18901170790195465,-0.1036195382475853,0.10882942378520966,-0.055154476314783096,-0.12203649431467056,-0.1710290163755417,0.1258022040128708,0.02044735476374626,0.011857126839458942,-0.2354794442653656,-0.09362901747226715,-0.18086501955986023,-0.4505118131637573,-0.10061310231685638,-0.3015340566635132,-0.300017774105072,0.21500341594219208,-0.25325971841812134,0.11492964625358582,-0.47090160846710205,0.2125568985939026,-0.009649415500462055,0.25791797041893005,-0.09582267701625824,0.10655041038990021,-0.24594372510910034},{-0.020059481263160706,0.22666116058826447,-0.014473428018391132,-0.10727819055318832,0.01733822375535965,-0.06049006059765816,0.15376541018486023,0.3140896260738373,-0.17735454440116882,0.090974360704422,-9.405461605638266e-05,-0.24573102593421936,0.03643888235092163,0.29188236594200134,-0.14884553849697113,0.1228335052728653,-0.19340521097183228,-0.03830132633447647,-0.1291525661945343,-0.0882628783583641,0.4615324139595032,-0.12681889533996582,0.12999294698238373,0.1999959498643875,-0.2969176471233368,-0.14167670905590057,-0.21797257661819458,0.21291981637477875,-0.15464919805526733,-0.2387104481458664,-0.2619006037712097,-0.23486043512821198},{-0.3581961691379547,-0.05939881131052971,-0.048152755945920944,-0.12152469903230667,-0.016003208234906197,-0.35528069734573364,0.041342973709106445,-0.10434556752443314,-0.2835116982460022,-0.16698981821537018,0.10408365726470947,0.10773596167564392,-0.15124760568141937,0.2869410216808319,-0.4003739655017853,-0.005544138606637716,-0.2872891426086426,0.28878316283226013,-0.29376479983329773,0.439971923828125,0.3659178912639618,-0.10264267772436142,-0.20551010966300964,-0.3333197832107544,-0.15701405704021454,-0.046595100313425064,-0.3724514842033386,-0.24609880149364471,0.3116213381290436,-0.22068805992603302,0.09446553885936737,-0.1855469048023224},{0.06890001147985458,0.2109861671924591,0.2590688169002533,0.18393687903881073,0.06428545713424683,-0.14320336282253265,0.06889978051185608,-0.2138725072145462,-0.41155436635017395,0.02734239399433136,0.24684949219226837,-0.04597305878996849,-0.11170412600040436,-0.03512956202030182,0.0048986575566232204,0.20768913626670837,-0.23276089131832123,-0.07877391576766968,0.024643758311867714,-0.2944656312465668,0.30516594648361206,-0.02348865196108818,0.028809502720832825,0.046384941786527634,0.22904320061206818,-0.33991310000419617,-0.3643517792224884,0.009119299240410328,-0.1815938502550125,0.32143545150756836,0.018229251727461815,-0.2977745532989502},{-0.2969624400138855,0.04149315878748894,-0.13330747187137604,-0.32477322220802307,-0.19856074452400208,-0.18813708424568176,0.17511659860610962,0.27521634101867676,-0.015588793903589249,0.17572210729122162,-0.19529509544372559,0.31550300121307373,0.26415586471557617,-0.02752787619829178,0.18764208257198334,0.1158449649810791,-0.10733145475387573,-0.06869418174028397,-0.40516427159309387,0.06102246046066284,-0.3914715647697449,-0.10330290347337723,0.07111643999814987,-0.2516210675239563,0.03333446383476257,0.2694501578807831,-0.16190440952777863,0.01649303361773491,0.3422900438308716,0.2747889459133148,0.09735429286956787,0.2378767877817154},{-0.07581695914268494,-0.10466122627258301,-0.3063914179801941,-0.2756674289703369,0.02754734270274639,0.2893053889274597,0.1848984658718109,0.07226007431745529,-0.3849216103553772,-0.13700339198112488,-0.2774515151977539,-0.22001388669013977,-0.26943889260292053,0.3254295885562897,0.25432270765304565,0.001180650549940765,0.27723702788352966,0.28089410066604614,-0.0011797132901847363,0.26127150654792786,-0.24473974108695984,0.011228173971176147,-0.06618750840425491,0.2633090913295746,-0.06740841269493103,0.33643484115600586,-0.30036917328834534,-0.09165415167808533,0.01597917452454567,-0.15357384085655212,-0.094141386449337,-0.3241252899169922},{-0.40333640575408936,-0.36742088198661804,0.267585813999176,-0.2705311179161072,-0.1440376341342926,0.15868356823921204,0.025086745619773865,0.42066681385040283,-0.11191735416650772,0.0412411205470562,0.24938714504241943,-0.20189836621284485,-0.3071366548538208,0.10000160336494446,-0.08687795698642731,-0.1286626011133194,-0.06672331690788269,0.09496452659368515,-0.13533879816532135,-0.23197689652442932,0.08898218721151352,-0.016365481540560722,0.1714274287223816,-0.08246401697397232,0.17951631546020508,0.0894346609711647,-0.16091610491275787,-0.3207835853099823,0.010800250805914402,0.17889304459095,0.009369002655148506,-0.17739401757717133},{-0.3017651438713074,-0.2809734344482422,-0.13054949045181274,0.28137490153312683,0.2759544849395752,0.1722520887851715,-0.1615379899740219,-0.1597399115562439,0.31580954790115356,-0.26891598105430603,0.2532207667827606,-0.23776939511299133,-0.18063984811306,-0.022960511967539787,-0.12541532516479492,0.021535279229283333,-0.39051780104637146,0.017326971516013145,-0.1589537262916565,0.2503262162208557,-0.10600220412015915,-0.15629740059375763,-0.06603960692882538,-0.09877476096153259,-0.18360544741153717,-0.07428475469350815,-0.15332293510437012,-0.48793354630470276,0.13427028059959412,0.18464352190494537,-0.22504033148288727,-0.020329155027866364},{0.2650493085384369,-0.015093010850250721,-0.31098949909210205,-0.07706210762262344,-0.16741947829723358,0.2428147941827774,0.031616244465112686,-0.023444615304470062,-0.23697373270988464,-0.17210733890533447,-0.06424341350793839,-0.1886395663022995,-0.1748945116996765,-0.12324721366167068,-0.25921598076820374,0.1950296014547348,0.2214319258928299,0.06533347815275192,0.27240699529647827,0.05971594154834747,0.000909483409486711,0.15952181816101074,0.14171871542930603,-0.18237251043319702,0.27664676308631897,-0.14959877729415894,-0.027754614129662514,0.1325041502714157,0.23447522521018982,-0.1302848607301712,-0.14201834797859192,-0.015718696638941765},{0.08005107194185257,-0.09480451047420502,0.07970558851957321,-0.505959689617157,-0.2019658088684082,-0.38115519285202026,-0.29743149876594543,-0.23704569041728973,0.2910643219947815,-0.176984041929245,0.39676913619041443,0.2558968663215637,0.1505521833896637,0.013454791158437729,0.3335462212562561,-0.3774135410785675,-0.15015782415866852,0.1318986564874649,-0.15480485558509827,-0.3108241558074951,-0.09929869323968887,-0.12222782522439957,0.464993953704834,0.26898398995399475,-0.12089042365550995,0.06348291784524918,-0.06825568526983261,0.0732584223151207,0.23306886851787567,0.06545887142419815,0.32876887917518616,0.1013433113694191},{0.19250333309173584,0.2805697023868561,0.12308700382709503,0.0027197320014238358,0.00929295364767313,0.20124654471874237,0.08117598295211792,0.2682524621486664,-0.006272096186876297,-0.23659130930900574,-0.14832183718681335,-0.2141304314136505,0.12142147868871689,0.19720764458179474,0.15497808158397675,0.030022552236914635,0.18756718933582306,0.0038889553397893906,-0.17102430760860443,0.23190054297447205,-0.12789995968341827,-0.08972989767789841,-0.2098493129014969,-0.2545504570007324,0.1939099133014679,0.24810664355754852,0.06700227409601212,0.21173806488513947,0.16717955470085144,0.06243722513318062,-0.1283799558877945,-0.14128439128398895},{-0.004552949219942093,0.3333050608634949,-0.28806352615356445,-0.15348224341869354,0.21312206983566284,-0.28837868571281433,0.22347700595855713,-0.3720971345901489,-0.044236067682504654,0.08130812644958496,-0.18610559403896332,-0.3177599310874939,-0.1992100477218628,-0.18214304745197296,0.13475389778614044,-0.15463274717330933,0.06554295867681503,0.09813603013753891,0.06778521835803986,0.04585045203566551,-0.09574265778064728,0.008201450109481812,0.10344408452510834,0.30954524874687195,-0.05665505677461624,-0.2788967192173004,-0.2261786013841629,0.03976801037788391,-0.3661598861217499,0.06928391754627228,0.02802598848938942,0.060739126056432724},{-0.010541193187236786,-0.07159949094057083,-0.25309956073760986,0.013156679458916187,0.09493616968393326,-0.0006009257049299777,-0.18588262796401978,-0.23181875050067902,-0.24434170126914978,-0.2077360451221466,0.27373915910720825,0.16687390208244324,0.04978743568062782,-0.1162785068154335,0.15817143023014069,0.08633767068386078,0.3528306782245636,0.15225394070148468,-0.05637310445308685,-0.225450798869133,0.04209088906645775,0.0094025619328022,-0.30428576469421387,0.018190626055002213,-0.09633072465658188,-0.1399194896221161,0.188168466091156,0.28123739361763,-0.2399786412715912,0.10941074043512344,0.13989150524139404,0.32751619815826416},{-0.11684564501047134,-0.15577684342861176,0.04992024973034859,-0.19606338441371918,-0.24635712802410126,-0.13943636417388916,-0.5294822454452515,-0.25253942608833313,-0.12428209185600281,-0.3925030827522278,-0.07039326429367065,0.011631276458501816,0.29595035314559937,0.26375484466552734,-0.12865473330020905,0.06941832602024078,0.03734276071190834,0.019059140235185623,-0.4740743935108185,-0.2667050361633301,0.17719417810440063,0.22672311961650848,0.22673755884170532,-0.1496054083108902,-0.07637526094913483,-0.053460635244846344,-0.2803032696247101,0.3043520748615265,-0.12215577811002731,0.22397562861442566,0.12142867594957352,0.1925685703754425},{-0.27807724475860596,-0.07109460979700089,0.23610813915729523,-0.26165491342544556,0.1494242548942566,-0.10551173985004425,0.1835567206144333,0.21527130901813507,0.2684575021266937,0.15642715990543365,0.23351828753948212,0.2800472676753998,0.0777752548456192,0.2437162846326828,-0.12726277112960815,0.12211675196886063,0.33671846985816956,0.11723151057958603,-0.0919504463672638,0.006193140055984259,-0.20978860557079315,0.37650689482688904,-0.0838860273361206,-0.0363411009311676,0.30214574933052063,-0.2845116853713989,-0.2609657943248749,-0.05518605187535286,0.375205397605896,-0.033972688019275665,0.04618053883314133,-0.0986473485827446},{-0.1674032211303711,-0.32661333680152893,0.10754895955324173,0.3192174434661865,0.16016940772533417,-0.22942836582660675,-0.1264856457710266,-0.11398087441921234,0.20943458378314972,0.16025051474571228,-0.07596684992313385,0.24995547533035278,-0.21907396614551544,0.2452639788389206,0.26066094636917114,-0.06505228579044342,-0.05664510279893875,0.23758506774902344,-0.236347034573555,0.18098273873329163,-0.16637022793293,-0.07945037633180618,-0.1643112152814865,0.07109560817480087,-0.17715497314929962,-0.31297510862350464,0.1865205466747284,-0.27607282996177673,0.12912948429584503,-0.1707264631986618,0.3573058843612671,0.31907138228416443},{0.29230836033821106,-0.2713268995285034,-0.15032652020454407,-0.041241277009248734,0.36567455530166626,0.029450733214616776,-0.06839382648468018,0.0365949422121048,-0.24346023797988892,0.29642441868782043,0.44735804200172424,-0.10845381766557693,-0.17817942798137665,-0.19887587428092957,0.09699646383523941,-0.34070104360580444,0.041593022644519806,0.26220807433128357,-0.0703110620379448,0.11028716713190079,0.04301723465323448,0.18086354434490204,-0.1533685326576233,-0.18213419616222382,0.1962233930826187,-0.34166038036346436,0.11385304480791092,-0.3275018334388733,-0.06551861763000488,-0.17883242666721344,-0.13089054822921753,0.30920687317848206},{0.27191922068595886,-0.08178269118070602,0.2997954785823822,-9.065067570190877e-05,-0.07092355936765671,-0.18831512331962585,-0.06744056940078735,0.036611754447221756,-0.002666819840669632,0.022824043408036232,-0.22941593825817108,-0.22115641832351685,0.03988027200102806,-0.28196853399276733,0.09528058767318726,-0.09343747794628143,0.282764196395874,0.09260635823011398,0.13646234571933746,-0.1511373072862625,-0.05547766387462616,-0.281922310590744,0.052139606326818466,-0.11611267924308777,0.17628784477710724,0.049329694360494614,-0.12496918439865112,-0.1176023781299591,0.2782321572303772,0.17498572170734406,0.09428787976503372,-0.2342979907989502},{0.29387080669403076,-0.2326173037290573,-0.14003467559814453,0.17287656664848328,-0.316731333732605,0.3155064284801483,0.1738893687725067,-0.16011376678943634,-0.0530831404030323,0.23926642537117004,0.08240704983472824,-0.3688324987888336,0.00837007351219654,-0.03332684561610222,0.3029862940311432,0.1736680269241333,-0.2665269076824188,-0.2951684296131134,-0.1423884481191635,-0.07332056015729904,0.07388775050640106,-0.17865559458732605,0.03238489851355553,0.1331523060798645,-0.2822885811328888,-0.32238081097602844,-0.24175719916820526,-0.160781592130661,0.01611992157995701,0.24294103682041168,-0.1788778305053711,0.1642613261938095},{-0.0701141208410263,0.15711790323257446,0.28724002838134766,-0.30938246846199036,-0.13860520720481873,0.06665017455816269,-0.35788947343826294,-0.19192351400852203,-0.1610223650932312,-0.17288276553153992,-0.06568630784749985,0.07291749119758606,0.0021719655487686396,0.2852020263671875,0.0038406639359891415,0.20247986912727356,0.27610671520233154,0.09244105964899063,-0.005741984583437443,-0.13829614222049713,0.25774478912353516,-0.2958243191242218,-0.01860680617392063,0.16151870787143707,0.3006061613559723,-0.08308302611112595,-0.13413994014263153,0.31893494725227356,-0.032544106245040894,0.21907518804073334,-0.20938342809677124,-0.15471398830413818},{-0.3787585198879242,0.022193660959601402,0.25913551449775696,0.10098148137331009,0.01814928650856018,0.03604917228221893,0.23056934773921967,0.2581305205821991,0.0827762633562088,-0.18360735476016998,-0.06011363863945007,0.16500677168369293,0.04352794215083122,0.35301095247268677,-0.2652173340320587,0.17567814886569977,0.0943269357085228,-0.06541363149881363,-0.3687557280063629,-0.17279152572155,0.28191885352134705,0.28879526257514954,-0.0031890026293694973,0.32170677185058594,0.2749980688095093,-0.2876451313495636,-0.06454624235630035,-0.2666896879673004,0.08351802080869675,0.179103285074234,0.06475502997636795,0.09977151453495026},{-0.10509571433067322,-0.3021881580352783,-0.03926832228899002,0.31257808208465576,-0.2760816812515259,-0.026679955422878265,-0.2667027413845062,0.32891637086868286,-0.09682689607143402,-0.38194581866264343,-0.1712905466556549,0.05595732480287552,0.15272799134254456,0.20836836099624634,0.16356968879699707,-0.05384287238121033,0.20002613961696625,0.2182634025812149,-0.10266849398612976,0.1488819122314453,-0.01709216646850109,-0.010935617610812187,0.07413678616285324,0.1830255687236786,-0.18773861229419708,0.3085308074951172,0.1416357457637787,0.1878388524055481,-0.07806447893381119,-0.30235087871551514,0.29256266355514526,-0.02682628110051155},{0.3000556528568268,0.103139229118824,0.025991875678300858,0.023284535855054855,0.05423329025506973,0.09839007258415222,-0.4280227720737457,0.021473562344908714,0.055056195706129074,0.16754084825515747,-0.10837898403406143,-0.2561405897140503,0.1476791799068451,0.26339396834373474,0.10911504924297333,0.09729979187250137,-0.29505810141563416,-0.048188138753175735,-0.01958022452890873,-0.1791030615568161,0.05951651558279991,0.2055625319480896,-0.23596258461475372,0.3942732512950897,0.27351903915405273,0.08073929697275162,-0.2766321897506714,0.0800405964255333,-0.20783111453056335,0.03548072278499603,0.25566190481185913,0.09679952263832092},{0.2875770628452301,0.06438899785280228,-0.2516571879386902,-0.2880038022994995,0.18155281245708466,0.044517941772937775,0.026808544993400574,-0.05216367542743683,-5.706436058972031e-05,0.04671299830079079,0.3795469403266907,-0.08265713602304459,-0.1940494328737259,0.06930334120988846,-0.40849924087524414,-0.12201473116874695,-0.2786814868450165,-0.10619617253541946,-0.11215882003307343,0.20716847479343414,0.4232262074947357,0.03428099676966667,-0.20888195931911469,0.19556772708892822,0.06358209997415543,0.1933053731918335,-0.04444599151611328,0.054709888994693756,0.27633965015411377,0.031511712819337845,0.1441713273525238,-0.26519903540611267},{-0.11632473766803741,-0.24653823673725128,0.3074382543563843,-0.22028802335262299,-0.007749801501631737,0.2753475606441498,0.15670014917850494,-0.1279621571302414,0.281307578086853,-0.00499667227268219,0.11708680540323257,0.10231874138116837,-0.26823118329048157,0.24421632289886475,-0.07675058394670486,-0.10880252718925476,-0.052216626703739166,0.1311989724636078,0.09313143044710159,-0.2770778238773346,0.04741217941045761,0.10955280810594559,0.3134283423423767,0.12277406454086304,0.17268234491348267,-0.4389069080352783,-0.2745683491230011,0.24133364856243134,-0.23342515528202057,0.13766580820083618,0.342806875705719,-0.11015062034130096},{0.22356291115283966,0.2701646685600281,-0.04323452338576317,0.19768063724040985,-0.16979046165943146,0.014694716781377792,-0.001559884287416935,-0.09405957907438278,-0.20016078650951385,-0.06899343430995941,0.053977515548467636,-0.0807378962635994,0.08160854876041412,0.2776760160923004,-0.05690200999379158,0.18686410784721375,0.2559017539024353,0.07010512053966522,0.2487887293100357,-0.27409157156944275,0.06196913868188858,0.04613316431641579,-0.18419307470321655,0.1467074751853943,0.25537383556365967,0.031071696430444717,0.09996486455202103,-0.15614235401153564,-0.2234610617160797,0.19337333738803864,0.2521094083786011,0.14000403881072998},{-0.11769656091928482,0.30323752760887146,-0.18441691994667053,0.08268078416585922,0.0817161276936531,-0.37211349606513977,-0.3155173361301422,0.30257511138916016,-0.16507673263549805,0.2755737006664276,0.13196273148059845,0.3098970055580139,0.14690819382667542,0.18574121594429016,0.1792186200618744,-0.30242204666137695,0.24161197245121002,-0.1721544861793518,-0.07451736927032471,-0.2771819233894348,-0.31886762380599976,-0.1329500675201416,0.11883470416069031,-0.10992290079593658,-0.13158194720745087,0.09192828088998795,0.2334805428981781,0.047807469964027405,-0.16388197243213654,0.15231327712535858,-0.010235312394797802,0.17567113041877747},{-0.04389775171875954,0.3197877109050751,-0.30941861867904663,0.12129215151071548,0.017044903710484505,0.07335814833641052,-0.29365602135658264,-0.021280670538544655,-0.2052549570798874,-0.24303774535655975,-0.308610737323761,0.27125096321105957,0.12793347239494324,-0.02864755131304264,-0.2198272943496704,-0.14297550916671753,0.054201431572437286,-0.1662469357252121,-0.1201358288526535,-0.2830944061279297,0.02862725593149662,0.277885764837265,-0.12497487664222717,-0.010459025390446186,-0.03763033077120781,0.18678946793079376,0.07059236615896225,-0.0678870752453804,0.30889928340911865,-0.10119083523750305,0.17516985535621643,-0.03230145946145058},{-0.2930907607078552,0.31447798013687134,0.2980412244796753,-0.12485480308532715,-0.04647568613290787,-0.3427692949771881,-0.02693280391395092,0.25575941801071167,0.2388995885848999,-0.2227359414100647,-0.2550085783004761,-0.16432248055934906,0.11252790689468384,0.19325998425483704,-0.08742082118988037,0.04319334775209427,0.026691215112805367,-0.20365096628665924,0.1860269010066986,0.26229211688041687,0.2597247362136841,0.28530606627464294,0.11530259251594543,-0.20452861487865448,0.2604924142360687,-0.09512481838464737,0.1888882964849472,-0.21191571652889252,0.0648895651102066,0.28721117973327637,0.2451191246509552,0.12608017027378082},{0.12788908183574677,-0.23965060710906982,-0.21323548257350922,-0.35225802659988403,0.31904926896095276,-0.20235879719257355,0.16726179420948029,-0.16719458997249603,-0.04964737594127655,-0.0574096217751503,0.06555093079805374,-0.20384089648723602,-0.1138339415192604,-0.32969820499420166,-0.15335090458393097,0.09174033999443054,0.22598490118980408,0.06631071865558624,0.07901719957590103,-0.12569312751293182,0.23279674351215363,-0.0006777301896363497,0.14300943911075592,-0.06594633311033249,-0.11749759316444397,-0.3458782136440277,-0.20617087185382843,0.22947899997234344,-0.18821418285369873,0.2235303670167923,0.2908688485622406,-0.13839520514011383},{-0.06780509650707245,0.1325121819972992,-0.30155470967292786,-0.23286832869052887,0.24261340498924255,-0.23564425110816956,-0.26470431685447693,0.2182794213294983,0.11818437278270721,-0.004728020168840885,-0.019481344148516655,-0.10554484277963638,-0.13752490282058716,-0.11025773733854294,0.1996338665485382,0.16354550421237946,-0.22007308900356293,0.04818914085626602,-0.30540621280670166,-0.21861319243907928,-0.22876358032226562,-0.1489899605512619,0.16071204841136932,0.0799708291888237,0.0973161980509758,-0.41812068223953247,0.17602913081645966,-0.2786965072154999,-0.14777164161205292,-0.16181570291519165,-0.3778913617134094,-0.2140384465456009}};
static const float layer_4_weight[32][8] = {{-0.37615182995796204,0.12158775329589844,-0.08809657394886017,-0.2312200665473938,-0.21250657737255096,0.030805127695202827,-0.2762516140937805,-0.025904236361384392},{0.2121063619852066,0.15288177132606506,0.25494498014450073,-0.31739136576652527,-0.17162634432315826,-0.14794525504112244,-0.03691599890589714,0.07552207261323929},{0.2195023149251938,-0.09669782966375351,-0.1254357546567917,0.24575428664684296,-0.18479181826114655,-0.2217385172843933,0.20929791033267975,-0.3377416133880615},{0.004839310422539711,-0.19969190657138824,-0.01584545150399208,0.004294688813388348,-0.06378474086523056,-0.19755490124225616,-0.38568419218063354,0.19792765378952026},{0.1470051109790802,0.1591298133134842,-0.1649254709482193,-0.33050736784935,-0.07655324786901474,0.2532740831375122,-0.16148516535758972,0.1904371827840805},{-0.236603781580925,-0.3883056044578552,0.08985894918441772,0.18957997858524323,-0.2284141182899475,0.038416698575019836,-0.3267848789691925,0.10439087450504303},{-0.10219700634479523,-0.1868058145046234,-0.3143845498561859,0.1412634253501892,-0.06443089991807938,0.22303609549999237,0.3473042845726013,0.45724746584892273},{0.2753213942050934,0.22900718450546265,-0.07661687582731247,0.27884742617607117,-0.0037674680352211,0.018132483586668968,0.0988384261727333,0.17740187048912048},{-0.0696687325835228,0.1271062195301056,-0.3514416217803955,-0.2088049054145813,-0.3718697428703308,-0.21007892489433289,-0.5096124410629272,-0.25749900937080383},{-0.29548466205596924,0.05231459438800812,0.08108742535114288,-0.12159007787704468,0.3865360617637634,0.3483883738517761,-0.03208271414041519,-0.06423167884349823},{0.2154853492975235,0.36173173785209656,-0.34573137760162354,-0.23404239118099213,0.14373573660850525,-0.1217770203948021,0.07431977987289429,0.19624774158000946},{0.32902511954307556,0.033631786704063416,-0.07089423388242722,-0.021192090585827827,-0.3011394143104553,-0.19045333564281464,0.04361260309815407,0.04869799315929413},{-0.03560496121644974,0.25472670793533325,-0.19543524086475372,-0.2717554569244385,0.0728190690279007,0.13773053884506226,0.04395051300525665,-0.2915852665901184},{0.31564241647720337,0.06460870802402496,0.1528450846672058,0.1491902470588684,-0.09533651918172836,-0.2503941059112549,-0.09575846791267395,0.2880120277404785},{-0.10209092497825623,-0.04117327183485031,0.07598447799682617,0.003377677872776985,0.19527995586395264,-0.2251814752817154,0.12199895083904266,-0.17336037755012512},{0.01938396506011486,-0.2677455246448517,0.18588760495185852,0.06609013676643372,-0.06929822266101837,0.2932009994983673,-0.22795508801937103,-0.33453330397605896},{0.17893564701080322,-0.22025944292545319,0.1608312577009201,-0.12121738493442535,0.05371582880616188,0.11320561170578003,0.31889134645462036,0.22377687692642212},{0.0623810812830925,-0.13217444717884064,-0.014049666002392769,0.23298798501491547,0.07862044870853424,-0.068721704185009,0.3054228127002716,-0.049614060670137405},{-0.35830944776535034,-0.22863784432411194,0.09689614921808243,0.1554442048072815,-0.0018762395484372973,-0.15454719960689545,0.10811444371938705,0.2787494361400604},{0.20091167092323303,-0.31530630588531494,-0.17828050255775452,0.33672088384628296,0.08035100251436234,0.09375107288360596,-0.3229367434978485,-0.22092357277870178},{0.18452049791812897,0.3067317008972168,0.2818988561630249,0.28388041257858276,0.1949712187051773,0.08038211613893509,-0.03891388699412346,0.3032877445220947},{0.024705972522497177,0.38077273964881897,0.030238017439842224,-0.3330608308315277,-0.08430560678243637,-0.013119088485836983,-0.06106942147016525,0.10811078548431396},{0.0027338748332113028,0.19271372258663177,-0.38407644629478455,0.3653905391693115,0.07528932392597198,-0.29987242817878723,-0.253737211227417,-0.23205377161502838},{-0.31534817814826965,0.2803356647491455,0.27729034423828125,-0.005308313295245171,-0.2567620575428009,0.10548963397741318,0.033465426415205,-0.09011451154947281},{0.12122200429439545,0.1872950792312622,0.10409389436244965,-0.15105155110359192,0.29898762702941895,0.2845359444618225,-0.14574798941612244,-0.04781697317957878},{-0.03629065304994583,0.02089891955256462,0.3432631492614746,0.061474256217479706,0.29727351665496826,0.30541080236434937,-0.1435050517320633,0.07016076147556305},{0.17866267263889313,-0.32298117876052856,-0.3652273118495941,-0.28800728917121887,-0.20155470073223114,-0.09529430419206619,0.14792416989803314,-0.12147996574640274},{-0.06119314581155777,-0.14148056507110596,0.2042253017425537,-0.09674231708049774,-0.3328556716442108,-0.09804387390613556,0.06267574429512024,-0.3336007297039032},{0.2735522389411926,0.18091130256652832,-0.07431819289922714,0.16963040828704834,0.1300622522830963,0.243986114859581,-0.1687445491552353,-0.03268652409315109},{-0.19701318442821503,0.33735933899879456,0.10088943690061569,-0.17122139036655426,0.12571734189987183,0.00015338434604927897,0.09081348031759262,0.18114113807678223},{-0.22231701016426086,0.091156505048275,-0.12337681651115417,-0.07856627553701401,0.29588475823402405,-0.2753273546695709,-0.17981301248073578,-0.35056746006011963},{0.16829457879066467,-0.06866919249296188,-0.2820655107498169,-0.3597661554813385,-0.2443494349718094,-0.05706848204135895,-0.31051668524742126,-0.10447530448436737}};
static const float layer_0_bias[32] = {-0.08957786113023758,0.1286737471818924,0.02655063569545746,0.04723641276359558,0.011866233311593533,0.12061607837677002,-0.07382798939943314,-0.024409323930740356,0.11176279932260513,0.12032900005578995,-0.03290634974837303,0.15459859371185303,0.09250544756650925,0.03199763223528862,0.09303198754787445,0.06245512515306473,0.05607250705361366,0.0014594770036637783,-0.0793280377984047,0.14599177241325378,0.04102972894906998,0.15916472673416138,0.0023048336151987314,-0.11282205581665039,0.1667400449514389,0.09917223453521729,0.058665551245212555,0.1369456946849823,0.044511761516332626,0.11067438870668411,0.05804489925503731,-0.012820553034543991};
static const float layer_1_bias[32] = {0.13803128898143768,0.004791061393916607,0.0637766420841217,0.09801844507455826,-0.10514840483665466,0.026544608175754547,-0.031115854158997536,0.0066591291688382626,0.15866322815418243,0.1846923828125,-0.1523420214653015,0.019319413229823112,0.14639580249786377,0.01709461212158203,-0.09780105948448181,-0.039184946566820145,0.09764616936445236,-0.11547021567821503,0.12450051307678223,0.045951128005981445,0.2252761721611023,0.1651778519153595,-0.03147689625620842,0.04628356918692589,0.004663656000047922,0.0317651741206646,0.031698476523160934,0.10281673073768616,0.019559167325496674,0.03537019342184067,0.02774343080818653,-0.03372568264603615};
static const float layer_2_bias[32] = {0.023677092045545578,0.10896133631467819,-0.08349428325891495,-0.055140089243650436,-0.02866329811513424,-0.014846940524876118,-0.06108737364411354,-0.17596390843391418,0.12277557700872421,-0.04235806316137314,0.18166255950927734,0.06378697603940964,0.030640859156847,0.05086240917444229,0.04738359898328781,0.03301621228456497,0.12410445511341095,0.04300734028220177,-0.11055541038513184,0.035907499492168427,-0.019361522048711777,0.05469377338886261,0.0477113202214241,0.06742595136165619,0.0006838684785179794,0.16354621946811676,0.018001116812229156,0.043228186666965485,0.014107459224760532,0.05704476684331894,-0.04626994952559471,1.0475934686837718e-05};
static const float layer_3_bias[32] = {0.09948180615901947,0.10339939594268799,0.06135497987270355,0.10829856246709824,0.061759352684020996,0.07930289208889008,-0.03714693337678909,-0.08001739531755447,0.21757346391677856,-0.040857281535863876,-0.014307024888694286,0.05559614300727844,0.00725177489221096,0.03077905997633934,0.05919833481311798,0.06031425669789314,-0.04905691370368004,-0.07949589937925339,0.0006131495465524495,0.04954637214541435,-0.11348143965005875,0.03154124319553375,0.07123293727636337,0.027922768145799637,-0.03979794681072235,-0.05979936569929123,0.08488332480192184,0.17754140496253967,-0.03644987940788269,-0.05886048823595047,0.10832646489143372,0.0988420844078064};

	void networkEvaluate(struct control_t_n *control_n, const float *state_array) {
	
		for (int i = 0; i < structure[0][1]; i++) {
			output_0[i] = 0;
			for (int j = 0; j < structure[0][0]; j++) {
				output_0[i] += state_array[j] * layer_0_weight[j][i];
			}
			output_0[i] += layer_0_bias[i];
			output_0[i] = tanhf(output_0[i]);
		}
	
		for (int i = 0; i < structure[1][1]; i++) {
			output_1[i] = 0;
			for (int j = 0; j < structure[1][0]; j++) {
				output_1[i] += output_0[j] * layer_1_weight[j][i];
			}
			output_1[i] += layer_1_bias[i];
			output_1[i] = tanhf(output_1[i]);
		}
		
		for (int i = 0; i < structure[2][1]; i++) {
			output_2[i] = 0;
			for (int j = 0; j < structure[2][0]; j++) {
				output_2[i] += output_1[j] * layer_2_weight[j][i];
			}
			output_2[i] += layer_2_bias[i];
			output_2[i] = tanhf(output_2[i]);
		}
		
		for (int i = 0; i < structure[3][1]; i++) {
			output_3[i] = 0;
			for (int j = 0; j < structure[3][0]; j++) {
				output_3[i] += output_2[j] * layer_3_weight[j][i];
			}
			output_3[i] += layer_3_bias[i];
		}
		
		control_n->thrust_0 = output_3[0];
		control_n->thrust_1 = output_3[1];
		control_n->thrust_2 = output_3[2];
		control_n->thrust_3 = output_3[3];	
	
	}
	