
//#include "network_evaluate.h"



float linear(float num) {
	return num;
}



float sigmoid(float num) {
	return 1 / (1 + exp(-num));
}



float relu(float num) {
	if (num > 0) {
		return num;
	} else {
		return 0;
	}
}

static const int structure[5][2] = {{13, 32},{32, 32},{32, 32},{32, 32},{32, 8}};
static float output_0[32];
static float output_1[32];
static float output_2[32];
static float output_3[32];
static const float layer_0_weight[13][32] = {{-0.35987424850463867,-0.303566038608551,-0.5224741101264954,0.4058302938938141,-0.3811412751674652,0.378094881772995,-0.2376716285943985,-0.42165669798851013,-0.026546688750386238,0.31026583909988403,-0.5108160376548767,-0.07879500091075897,-0.4157451391220093,-0.5439170002937317,0.49058786034584045,-0.19731135666370392,0.49277380108833313,0.026569142937660217,0.4074573814868927,0.10786903649568558,0.3259790241718292,-0.32380542159080505,0.3347504734992981,-0.3036251366138458,0.5256277918815613,0.28760814666748047,0.7261384725570679,0.17028675973415375,-0.37150973081588745,0.12238431721925735,-0.06387201696634293,0.6327106952667236},{0.4493313133716583,0.16083016991615295,-0.24611327052116394,0.40736597776412964,-0.1029118001461029,-0.44279295206069946,-0.03985238075256348,0.5339991450309753,0.26290690898895264,0.4817104935646057,-0.4852399528026581,-0.1991693079471588,-0.5251298546791077,-0.15666711330413818,-0.2077980935573578,0.05128851905465126,0.4571775794029236,0.18859757483005524,-0.37327563762664795,-0.20906586945056915,-0.20159322023391724,-0.13199228048324585,-0.13300569355487823,-0.33294758200645447,-0.007235859055072069,-0.12878969311714172,-0.11285696178674698,0.04115556180477142,0.4250374138355255,-0.19136656820774078,0.32927632331848145,0.034947898238897324},{-0.27733752131462097,0.3281702995300293,0.3071095943450928,0.046357396990060806,0.7235641479492188,-0.3326258957386017,0.5971829295158386,-0.36069247126579285,-0.31771165132522583,-0.23095016181468964,0.16266225278377533,0.035693660378456116,0.6600901484489441,-0.7327000498771667,0.11120031774044037,0.7108635306358337,0.4099141061306,0.35897913575172424,-0.49563854932785034,0.48754143714904785,-0.7070577144622803,0.1306629478931427,-0.053544022142887115,-0.45418116450309753,-0.3173731565475464,0.13346827030181885,0.19721108675003052,0.44415414333343506,-0.29262030124664307,0.10240242630243301,-0.4817441403865814,0.01059408113360405},{-0.0021578073501586914,0.21539835631847382,0.07324736565351486,0.5501733422279358,0.12194796651601791,0.3433728516101837,0.011228211224079132,-0.06867357343435287,0.26157113909721375,-0.18551847338676453,-0.3465585708618164,0.38571739196777344,-0.21531358361244202,0.49495014548301697,0.1091689020395279,0.16374695301055908,-0.2195492833852768,-0.4005509614944458,-0.16641497611999512,0.1752188354730606,-0.18274518847465515,0.009197094477713108,-0.029180796816945076,-0.31490209698677063,0.14818912744522095,-0.3845956027507782,0.019305432215332985,0.38910719752311707,0.18604792654514313,0.31945154070854187,-0.1546301245689392,0.43362924456596375},{0.2618439197540283,0.13106706738471985,0.25446245074272156,-0.23828744888305664,-0.13618777692317963,0.19160568714141846,-0.23828411102294922,0.2812269628047943,0.14637291431427002,0.2310175597667694,0.0024269833229482174,0.1610773801803589,0.39262762665748596,0.06637134402990341,0.0888630673289299,0.3699299693107605,0.12588725984096527,-0.1995169222354889,-0.0397450216114521,0.06293332576751709,0.1401919424533844,-0.3447900712490082,-0.3505536913871765,0.4158346354961395,-0.4477160573005676,0.40424826741218567,0.019020337611436844,-0.3867306113243103,0.38156554102897644,0.409652441740036,0.3494378924369812,-0.36595994234085083},{0.34761562943458557,0.10859669744968414,0.28252947330474854,-0.48340916633605957,-0.07206665724515915,0.25205427408218384,-0.32918331027030945,0.1537153273820877,-0.14100107550621033,0.22461062669754028,0.007826895453035831,-0.15974310040473938,-0.28587064146995544,-0.19644004106521606,0.10273458808660507,0.18879681825637817,-0.28457292914390564,-0.09106551110744476,0.3921735882759094,0.4033842086791992,0.5557336807250977,-0.42048919200897217,-0.6218988299369812,-0.08062443137168884,0.002759241731837392,-0.07073231041431427,0.0796683058142662,0.5401197075843811,0.21765227615833282,0.09197121858596802,-0.3450234532356262,0.22235643863677979},{0.2232477217912674,-0.3559761345386505,0.39073851704597473,-0.32528090476989746,-0.21348799765110016,0.24605503678321838,0.3391219973564148,-0.205886572599411,-0.28760194778442383,-0.13340789079666138,0.18645623326301575,-0.13033603131771088,0.04038538411259651,0.20639166235923767,-0.12890926003456116,0.26719528436660767,-0.30723392963409424,-0.2470647096633911,-0.21256151795387268,-0.3986092507839203,-0.24030618369579315,0.23073792457580566,-0.32994040846824646,-0.11894085258245468,-0.2857092022895813,-0.11782673746347427,0.014543591067194939,0.17415577173233032,0.14993621408939362,-0.14579427242279053,-0.10473453998565674,0.13191922008991241},{0.2871614396572113,0.06795822829008102,-0.518775463104248,0.02734578587114811,0.1794148087501526,0.0973123237490654,-0.3431064188480377,-0.32300394773483276,0.4551261067390442,0.18501070141792297,-0.32386019825935364,-0.5932335257530212,0.06791383773088455,-0.10596485435962677,0.35981231927871704,0.21856333315372467,-0.03492943197488785,-0.24962657690048218,-0.16286160051822662,3.848314008791931e-06,0.3213943541049957,-0.17068658769130707,0.2018466293811798,-0.02118382789194584,-0.03817209601402283,-0.3267192244529724,-0.13875241577625275,0.40621858835220337,-0.021297864615917206,0.44160398840904236,-0.42724305391311646,-0.1533915400505066},{0.2570315897464752,0.2895697355270386,-0.2387722283601761,0.567720890045166,-0.487811416387558,-0.3773614168167114,0.2118545025587082,0.21447119116783142,0.18589188158512115,0.12808603048324585,-0.565793514251709,-0.0002068056637654081,-0.39494210481643677,-0.11031824350357056,0.15605822205543518,-0.23997941613197327,0.12560659646987915,0.24478039145469666,0.041856274008750916,0.2005838304758072,-0.4044659435749054,-0.004462026990950108,-0.34574052691459656,-0.02941099740564823,0.3718363344669342,0.2374533712863922,-0.13619369268417358,-0.13324257731437683,-0.49143803119659424,-0.25269511342048645,0.09248334169387817,0.4599471688270569},{-0.26736170053482056,0.5476682782173157,0.028228040784597397,0.02730076014995575,0.4480418562889099,-0.19021150469779968,-0.16614432632923126,-0.08444394171237946,-0.10970558971166611,0.23777468502521515,-0.4453457295894623,0.20152752101421356,-0.14167948067188263,-0.5075197815895081,0.005649748258292675,0.2950856387615204,0.3435465097427368,0.5060968995094299,-0.0031356236431747675,-0.10986463725566864,-0.051140982657670975,-0.023472564294934273,-0.09226825088262558,-0.12067349255084991,-0.4307742714881897,0.17052201926708221,0.07255665212869644,0.17433249950408936,-0.2048404961824417,0.3021482825279236,-0.17984284460544586,-0.2710542380809784},{-0.22154951095581055,-0.383333295583725,-0.266202837228775,-0.22193683683872223,0.24277999997138977,0.5679527521133423,0.3955649733543396,0.41447532176971436,-0.02202768810093403,0.265154629945755,0.2785275876522064,0.12024058401584625,0.4752337634563446,0.09066452085971832,0.48827064037323,0.04537547007203102,0.29176968336105347,-0.2908754348754883,0.3741264045238495,-0.004521172493696213,0.2926050126552582,0.15083110332489014,-0.12655363976955414,0.15382236242294312,-0.12160732597112656,0.566583514213562,0.5408934354782104,-0.12831003963947296,0.09361273050308228,0.46758198738098145,0.3581233322620392,0.3184395730495453},{0.15424588322639465,-0.22903543710708618,0.24766476452350616,-0.34173423051834106,-0.4075208902359009,0.2530139684677124,-0.3544093668460846,0.24317365884780884,0.25440117716789246,0.42100387811660767,-0.29146087169647217,-0.16814132034778595,0.2621860206127167,-0.1765848696231842,0.5425809621810913,0.3436233103275299,-0.376617968082428,0.3719545304775238,-0.12294236570596695,0.4261837899684906,0.41688403487205505,-0.5259612798690796,-0.34176796674728394,0.5010187029838562,0.16578960418701172,-0.3374979794025421,0.03181121125817299,-0.12865343689918518,0.09797971695661545,-0.3006957173347473,-0.4263674318790436,-0.2708645462989807},{-0.1041269525885582,-0.10238079726696014,0.22614899277687073,-0.09736988693475723,0.07859884202480316,0.009020118042826653,0.0797509253025055,-0.08709032088518143,-0.02783946879208088,-0.31665927171707153,-0.015898779034614563,0.10896304994821548,-0.16625306010246277,0.1822587251663208,0.1484888345003128,0.13031445443630219,-0.11561739444732666,-0.15818417072296143,-0.1470663845539093,-0.030356746166944504,0.09501317143440247,-0.20593029260635376,-0.17130282521247864,-0.052999481558799744,-0.021674562245607376,0.29123973846435547,-0.24029541015625,0.12207113951444626,0.19028115272521973,-0.1942843794822693,0.005312654655426741,-0.02449294552206993}};
static const float layer_1_weight[32][32] = {{0.16037209331989288,-0.13288921117782593,-0.15818431973457336,0.13269910216331482,-0.0013892659917473793,0.2634562849998474,-0.013607236556708813,0.13029108941555023,0.3359737694263458,-0.24060580134391785,0.1161201000213623,0.10956384241580963,0.04388672858476639,-0.2458800971508026,-0.1273084133863449,-0.0512569285929203,-0.18319657444953918,0.04942517727613449,-0.4362858831882477,-0.17269369959831238,-0.1687670797109604,-0.6205803751945496,-0.08530089259147644,0.18460705876350403,-0.11279505491256714,-0.1830279529094696,-0.09323374927043915,0.10430431365966797,-0.023255623877048492,0.21352165937423706,-0.28497958183288574,0.14410218596458435},{-0.122087262570858,-0.37387341260910034,0.4427913427352905,0.16256573796272278,-0.05969627574086189,-0.05207417160272598,0.10574710369110107,0.32063353061676025,0.3154187500476837,0.1070699393749237,-0.09574057906866074,0.12908999621868134,0.04448828473687172,0.29237693548202515,-0.16355367004871368,-0.22529619932174683,0.1985764056444168,-0.5216060876846313,0.04590192437171936,0.11556039750576019,0.30257079005241394,0.15723355114459991,-0.11542864143848419,-0.07242455333471298,-0.20169468224048615,0.20495936274528503,0.22196073830127716,0.191307932138443,-0.062310848385095596,-0.2505124807357788,-0.012388291768729687,-0.11800170689821243},{-0.03698335587978363,-0.08116507530212402,0.009146436117589474,0.01373315043747425,-0.013100179843604565,0.19999605417251587,-0.24208900332450867,0.24097150564193726,0.22647283971309662,-0.11153237521648407,-0.22575120627880096,0.011538772843778133,0.3528895378112793,-0.039765313267707825,0.12110511213541031,-0.15380847454071045,-0.0018885981990024447,-0.1819075345993042,-0.027863455936312675,0.23005063831806183,-0.09938360005617142,-0.14796465635299683,0.05050986632704735,0.24830926954746246,0.35459351539611816,-0.059362854808568954,0.02429511770606041,0.17535626888275146,0.09441223740577698,0.21049657464027405,-0.03156089410185814,0.33202654123306274},{0.1047469824552536,0.24274548888206482,-0.14617474377155304,-0.29686373472213745,-0.4026835262775421,0.09471879154443741,0.30725499987602234,-0.010423404164612293,-0.3400851786136627,-0.3136453926563263,-0.09402719885110855,0.18287502229213715,-0.07529392093420029,-0.038956742733716965,-0.0836542397737503,-0.3012639582157135,0.09644023329019547,-0.4733448028564453,0.1479385495185852,-0.23650136590003967,0.31531912088394165,-0.35070255398750305,0.2052810937166214,0.07406942546367645,-0.23462405800819397,0.12545816600322723,-0.09262581914663315,0.2537707984447479,0.22573955357074738,0.007633457891643047,-0.11201920360326767,0.24809004366397858},{-0.04394163936376572,0.006325149908661842,0.08276477456092834,-0.0067979563027620316,0.3708219528198242,0.28498104214668274,0.4355757534503937,0.0025772228837013245,0.3092919588088989,0.10982531309127808,-0.08147678524255753,0.309035062789917,0.2736215889453888,-0.09556102752685547,0.06527093797922134,0.23842504620552063,-0.008201097138226032,-0.1674552708864212,0.1607869267463684,0.5734240412712097,-0.18674415349960327,-0.052137427031993866,0.3106870651245117,0.02184879779815674,0.3992499113082886,0.04397882893681526,0.13681334257125854,-0.1449776440858841,-0.194414421916008,0.1245502382516861,0.09034328907728195,-0.04094664379954338},{0.26468849182128906,0.2216499149799347,0.16591139137744904,0.27129241824150085,-0.35914725065231323,0.3042433261871338,-0.11653853207826614,0.2588258981704712,-0.3493228852748871,0.13542264699935913,0.2833258807659149,0.0456622838973999,0.1440397948026657,-0.02911447547376156,0.15456721186637878,0.19938604533672333,0.16592010855674744,0.5994616150856018,-0.3188509941101074,-0.35828858613967896,-0.3441675901412964,-0.05915603041648865,0.19144399464130402,0.1553371697664261,0.30846020579338074,-0.1804497241973877,0.4118620455265045,-0.021925512701272964,0.1412568986415863,0.4546819031238556,0.4992844760417938,-0.1974315047264099},{-0.23456138372421265,-0.39433279633522034,-0.09112662822008133,0.16677838563919067,0.1348455250263214,0.05774185433983803,0.4486698508262634,0.11604287475347519,0.21199549734592438,-0.11078515648841858,0.27434995770454407,0.34627145528793335,-0.36345577239990234,0.1475183218717575,0.1528102159500122,0.23807092010974884,0.022825708612799644,-0.43365466594696045,0.15471769869327545,0.3061986267566681,0.3621516823768616,-0.2816568911075592,-0.05944833904504776,-0.2168363481760025,-0.10703776031732559,-0.023618094623088837,-0.021970786154270172,-0.29032790660858154,-0.012020745314657688,0.008195010013878345,-0.06362945586442947,0.13455049693584442},{-0.23668648302555084,0.1027078926563263,0.2325001060962677,-0.048127155750989914,-0.11289597302675247,-0.04856797680258751,0.11365912109613419,0.2500268816947937,0.28147900104522705,-0.37466961145401,0.4008658826351166,0.0012978166341781616,-0.06231533735990524,0.28117188811302185,0.052956439554691315,0.13723111152648926,0.213341623544693,0.0345456525683403,-0.05009162425994873,-0.3283635377883911,0.19439731538295746,-0.048999495804309845,0.13754555583000183,-0.10573586821556091,0.3380851745605469,0.1353263556957245,-0.10212043672800064,-0.061133403331041336,-0.08341342210769653,-0.28387999534606934,0.3366020619869232,0.38614052534103394},{0.22534239292144775,-0.08069843798875809,0.305932879447937,-0.17595914006233215,-0.4094434082508087,0.2852801978588104,-0.3588300049304962,0.03002830594778061,-0.09112299233675003,-0.07338353246450424,0.25372377038002014,0.005516555160284042,-0.02921358123421669,-0.24629254639148712,-0.3030376434326172,0.040718089789152145,-0.13471004366874695,-0.09021466225385666,-0.54920494556427,-0.25075313448905945,0.1722988337278366,-0.4913666844367981,-0.2002616971731186,-0.34876927733421326,-0.1508137732744217,-0.19160309433937073,0.34489211440086365,-0.04745473340153694,-0.03163903206586838,0.4235151410102844,0.3544543385505676,-0.3328755795955658},{0.16118665039539337,0.24406999349594116,-0.12444185465574265,0.27131369709968567,-0.3081357181072235,0.1200329139828682,-0.22443589568138123,-0.2618211805820465,-0.0982464849948883,-0.11547809094190598,0.0551893450319767,-0.152067631483078,-0.19073697924613953,0.05141904577612877,-0.062001828104257584,0.02349281869828701,0.04975919798016548,0.17110320925712585,-0.5000117421150208,0.04627945274114609,0.060490284115076065,0.15865547955036163,-0.26550382375717163,0.15573084354400635,0.11322242766618729,0.2577028274536133,0.1536610871553421,0.30890071392059326,-0.08332744240760803,0.026772283017635345,-0.05572829768061638,-0.20384052395820618},{-0.21595549583435059,-0.025380831211805344,0.19924381375312805,0.2583805322647095,0.42519593238830566,0.03584500774741173,-0.05697295442223549,-0.1643446385860443,0.21987587213516235,-0.08290377259254456,-0.19599440693855286,-0.019625699147582054,0.09660530090332031,-0.23934322595596313,0.08108074218034744,0.18837323784828186,0.07904504239559174,0.038045696914196014,-0.012637360021471977,-0.11024646461009979,-0.29937440156936646,0.08176808059215546,0.009617505595088005,0.23340445756912231,-0.0862131342291832,0.026378190144896507,-0.17836421728134155,-0.025481101125478745,-0.1507844477891922,0.02805154398083687,-0.09955164045095444,0.36568310856819153},{-0.06618138402700424,-0.06887496262788773,0.28306588530540466,0.18208470940589905,0.028459925204515457,-0.07124444842338562,-0.04798028618097305,-0.2424386739730835,0.1638849377632141,0.10189644247293472,-0.004946137312799692,-0.3578135669231415,-0.0634206160902977,-0.03968608379364014,0.3035424053668976,0.34257829189300537,0.26913270354270935,0.1203911229968071,0.3482290506362915,0.42646312713623047,0.12739820778369904,0.552257239818573,-0.027694249525666237,-0.30109503865242004,-0.3081233501434326,0.33206626772880554,0.2103404998779297,0.04057851433753967,0.14424516260623932,0.0505312979221344,0.20624540746212006,0.1789035201072693},{-0.15898127853870392,0.217119961977005,-0.26873779296875,0.29001879692077637,0.16886036098003387,0.19175399839878082,-0.14085043966770172,0.09876842051744461,0.31902989745140076,-0.3476433753967285,-0.2317628562450409,0.43128538131713867,-0.18559743463993073,0.3501114845275879,0.03609716147184372,0.43831637501716614,0.43243691325187683,0.07982391864061356,-0.08862344920635223,0.31452125310897827,0.2503243684768677,0.12514257431030273,0.07192481309175491,0.06798066198825836,0.08676458895206451,0.03273067995905876,0.3579389452934265,0.01615518517792225,0.32890310883522034,0.2966780364513397,-0.20711851119995117,0.30766475200653076},{-0.33215761184692383,0.14728686213493347,0.07390176504850388,0.06148501858115196,0.15906251966953278,0.25641173124313354,-0.05575104430317879,0.06431808322668076,0.04456638917326927,-0.137915700674057,-0.15250860154628754,-0.06368262320756912,0.10850869119167328,-0.5569109916687012,0.20883411169052124,0.29970040917396545,0.3002145290374756,0.1352340281009674,0.027526086196303368,-0.42066439986228943,-0.25472262501716614,0.05449719354510307,0.21506133675575256,0.0665014311671257,-0.036600079387426376,0.07895226776599884,0.0960756242275238,-0.28724968433380127,0.12884068489074707,0.06218646466732025,0.35346296429634094,-0.13491441309452057},{0.02731388807296753,0.3028051257133484,0.17318512499332428,0.2620445191860199,0.11911419779062271,-0.0646231546998024,0.19272512197494507,-0.019529396668076515,-0.21839934587478638,0.07392993569374084,0.17921610176563263,0.1857757866382599,-0.09901737421751022,0.23078115284442902,0.233896404504776,-0.09593747556209564,0.2417399138212204,0.29504746198654175,-0.5841771960258484,0.004036049824208021,-0.2606078088283539,-0.19766490161418915,0.155386820435524,0.034768976271152496,-0.20645058155059814,0.09538757801055908,-0.07430525124073029,0.4212205111980438,0.16889803111553192,-0.04950249567627907,0.05074572190642357,0.3064618706703186},{0.5211747884750366,-0.0630076602101326,0.23491083085536957,-0.2329559624195099,0.3944113254547119,-0.20050260424613953,0.5221902132034302,0.06602808088064194,-0.1828020215034485,0.2667182981967926,-0.08269818127155304,0.1761360913515091,0.001774761127308011,0.2696821391582489,0.29540687799453735,-0.38913023471832275,0.2530069649219513,0.08169817924499512,-0.33720967173576355,0.309518039226532,-0.25792941451072693,0.13988706469535828,0.12804831564426422,0.29962626099586487,0.2762782573699951,0.3887740969657898,0.1229206845164299,0.338908314704895,-0.15731826424598694,-0.08226865530014038,-0.3722459077835083,0.01988639496266842},{-0.07376009970903397,0.08367881178855896,-0.25410231947898865,-0.13154365122318268,0.1572285294532776,-0.12262125313282013,0.22883838415145874,-0.029251176863908768,0.20182576775550842,-0.23962335288524628,-0.002974173752591014,-0.13670189678668976,0.03349185362458229,-0.00655635679140687,-0.1864027976989746,0.17553488910198212,0.3014892637729645,-0.12201999127864838,-0.08149590343236923,0.38767537474632263,0.20648156106472015,-0.14924639463424683,-0.08177050948143005,-0.18305638432502747,-0.33904096484184265,-0.036524899303913116,-0.2951525151729584,0.09459684044122696,-0.13596324622631073,-0.27956801652908325,-0.3119320571422577,0.24074137210845947},{0.19619718194007874,-0.33037322759628296,0.018382614478468895,0.2001125067472458,0.20918375253677368,-0.11097553372383118,0.19251205027103424,0.26431336998939514,0.24497583508491516,-0.04285295307636261,-0.08263133466243744,0.27909308671951294,0.3249098062515259,0.2250722348690033,-0.2310364544391632,-0.2736549973487854,-0.23634108901023865,-0.03287021070718765,-0.21862520277500153,0.184365376830101,-0.18540121614933014,-0.15954041481018066,-0.04021633788943291,0.25141599774360657,-0.026998907327651978,0.11494474858045578,0.0902179479598999,-0.439924955368042,-0.08972983062267303,-0.3587394952774048,-0.3746504783630371,-0.21149738132953644},{-0.30160537362098694,-0.11813390254974365,0.21660785377025604,0.12368729710578918,0.03753606230020523,0.25969505310058594,0.10121101140975952,0.12383252382278442,-0.17703166604042053,0.24637356400489807,-0.07336803525686264,0.18604831397533417,-0.13020330667495728,-0.12224562466144562,-0.31630197167396545,0.3503354489803314,0.20082396268844604,0.05188490077853203,-0.1803532987833023,-0.03791806474328041,-0.390102744102478,0.0037124259397387505,0.25878527760505676,-0.15564095973968506,0.18733114004135132,0.01811371184885502,-0.0875772163271904,-0.08844979852437973,0.02801542542874813,0.23020412027835846,0.2906622588634491,-0.2278159111738205},{0.5428078174591064,0.09427586942911148,-0.35784971714019775,0.020167922601103783,-0.06815674901008606,-0.47143957018852234,-0.2086298018693924,-0.14884227514266968,-0.24818354845046997,-0.14229552447795868,-0.457343727350235,0.26186472177505493,0.03623736649751663,0.38455930352211,-0.0838194265961647,0.021658271551132202,-0.3521879017353058,0.12439463287591934,-0.3123326003551483,0.08027809858322144,0.06132260710000992,0.13662265241146088,0.038323774933815,-0.3421280086040497,0.23386161029338837,-0.4211898446083069,0.30736130475997925,0.3463708162307739,0.3589376211166382,0.38411086797714233,0.3440788686275482,-0.23901903629302979},{-0.22063426673412323,0.23843075335025787,-0.053599052131175995,0.258328914642334,0.04159030318260193,0.22854502499103546,0.3575984835624695,0.16997992992401123,-0.37609413266181946,-0.12621930241584778,-0.10813173651695251,0.03781355917453766,0.12961643934249878,0.1600697636604309,0.028932252898812294,0.36574801802635193,-0.28075191378593445,0.23595470190048218,0.03318079188466072,0.06395191699266434,-0.5793959498405457,0.29085487127304077,0.1450633406639099,0.07238015532493591,0.062391966581344604,0.2803947925567627,0.05312420800328255,-0.2968246340751648,-0.1639554649591446,0.07378525286912918,-0.015471328981220722,-0.17142154276371002},{-0.14669086039066315,-0.10019516199827194,0.1529410034418106,0.13573694229125977,-0.028501903638243675,0.21389424800872803,0.11737272888422012,0.2132711261510849,0.36726224422454834,0.024890759959816933,0.11951880902051926,-0.16439898312091827,-0.021456746384501457,-0.48526039719581604,-0.1495399922132492,0.21189448237419128,0.17325624823570251,-0.6204027533531189,0.23729419708251953,-0.052009761333465576,0.2845095992088318,0.24938088655471802,0.14787812530994415,-0.5283893346786499,0.10584259778261185,0.1633317619562149,0.1309666931629181,-0.0742151066660881,-0.032402247190475464,0.0638885349035263,0.12779715657234192,-0.08931966125965118},{-0.031684648245573044,-0.08339463174343109,0.3083238899707794,-0.1606541872024536,0.2507765293121338,0.3734167814254761,-0.024599997326731682,-0.21217244863510132,-0.14744874835014343,0.16478495299816132,0.043416205793619156,0.2983028292655945,0.00474975211545825,-0.05524748936295509,0.10976232588291168,0.20178188383579254,-0.035803236067295074,0.06836729496717453,0.012501642107963562,-0.29086223244667053,0.358106404542923,-0.0012935018166899681,0.03249305859208107,0.06728054583072662,0.08247900754213333,0.13467426598072052,-0.15733860433101654,0.16432559490203857,-0.040563683956861496,-0.11918710172176361,-0.24828866124153137,0.12147416174411774},{-0.5866645574569702,-0.2170589417219162,-0.03635137900710106,-0.10268638283014297,0.053773969411849976,0.24546292424201965,-0.23363086581230164,0.22583988308906555,-0.0438678115606308,0.24094614386558533,-0.034915316849946976,-0.22274990379810333,-0.21066704392433167,0.08998716622591019,0.11733837425708771,0.04025857895612717,0.05328691750764847,0.24453920125961304,-0.014453141018748283,-0.07556036114692688,-0.021724196150898933,-0.02304030954837799,0.0845230221748352,0.17653276026248932,-0.0678890123963356,-0.2563483417034149,0.013799043372273445,-0.414943128824234,-0.014344017021358013,0.30504757165908813,-0.1392817199230194,0.13607431948184967},{0.3031543493270874,0.2826005220413208,0.012196487747132778,-0.1611887365579605,-0.18498598039150238,-0.03492215275764465,-0.36737382411956787,0.3092917799949646,0.15313418209552765,0.024166801944375038,-0.2881549894809723,-0.1788940727710724,0.15708638727664948,-0.05706891044974327,-0.009161657653748989,-0.16999436914920807,-0.26247239112854004,-0.2809724509716034,-0.22692029178142548,-0.14748543500900269,-0.019185861572623253,-0.5302954912185669,-0.27910491824150085,-0.07595471292734146,0.013684571720659733,0.19720162451267242,0.09362581372261047,0.3976997137069702,-0.2812027037143707,-0.10932908207178116,-0.004982736427336931,-0.16381001472473145},{0.04955814406275749,0.13782009482383728,0.16352954506874084,0.1407812386751175,0.1218453198671341,-0.31074824929237366,-0.03179185837507248,-0.2738483250141144,0.10174047946929932,-0.22578759491443634,-0.09842963516712189,-0.036674365401268005,0.07268076390028,-0.017375795170664787,0.006794191896915436,-0.1012938842177391,0.3438183069229126,-0.07620598375797272,0.046562232077121735,-0.04987705498933792,0.17149566113948822,0.43316444754600525,0.1123695895075798,0.1482079029083252,-0.09352733194828033,0.12044771015644073,0.04319941997528076,-0.08221758902072906,-0.37738218903541565,-0.10013876855373383,-0.01668366603553295,-0.10830633342266083},{0.13242536783218384,0.07522453367710114,-0.3823796808719635,0.06873780488967896,-0.06375917047262192,0.236166313290596,0.2886679768562317,-0.2710300087928772,-0.32214197516441345,0.027059750631451607,0.07257544994354248,0.11171227693557739,-0.269897997379303,0.08181841671466827,0.289478600025177,0.003769008442759514,0.2356702834367752,0.4823034405708313,-0.16850079596042633,0.13339628279209137,-0.13284969329833984,-0.06265847384929657,0.17770147323608398,0.3735295832157135,0.19913983345031738,0.3401327133178711,0.1248401626944542,0.12507778406143188,-0.007767430506646633,0.11881175637245178,-0.07492191344499588,0.04728575795888901},{0.2441723793745041,-0.11361843347549438,0.3304536044597626,-0.11009940505027771,-0.013965007849037647,0.09506109356880188,0.13965323567390442,-0.13265138864517212,0.20718935132026672,0.2325725257396698,-0.3097163438796997,0.07795851677656174,-0.1205066367983818,0.26517775654792786,-0.051992662250995636,-0.47311273217201233,-0.14670681953430176,-0.48464423418045044,-0.13073933124542236,0.24265344440937042,0.4533524811267853,-0.16277487576007843,-0.2022569328546524,-0.18752841651439667,0.12187380343675613,-0.04412200301885605,-0.012531755492091179,0.43947625160217285,0.20468759536743164,-0.3699891269207001,-0.15218795835971832,0.18530941009521484},{0.24091945588588715,-0.04968797042965889,-0.10985657572746277,0.32273080945014954,-0.14894422888755798,0.3009744882583618,0.08489573001861572,0.15891416370868683,-0.11478549242019653,0.06857021898031235,0.26068830490112305,-0.18618884682655334,-0.1454760581254959,0.10704997181892395,-0.05967436358332634,-0.010559138841927052,0.16335691511631012,0.1951301246881485,0.1013232171535492,-0.3233656883239746,0.05470889061689377,0.11645761877298355,-0.12284010648727417,0.17274361848831177,-0.0663737803697586,-0.07519521564245224,0.0802386999130249,-0.15105481445789337,0.0159976314753294,0.5245728492736816,0.05239347741007805,0.09782078117132187},{0.11097094416618347,-0.20991075038909912,0.11934313923120499,0.3007073402404785,0.23513545095920563,0.0810122936964035,0.2705274820327759,0.16692042350769043,-0.23709158599376678,0.24038824439048767,0.032783180475234985,0.06950464099645615,-0.14007587730884552,0.2259780466556549,0.07408776134252548,0.09685692191123962,0.298837810754776,0.33034536242485046,0.12247807532548904,-0.15509985387325287,-0.17699255049228668,0.36204463243484497,0.2974965572357178,0.2261972874403,0.027059068903326988,0.27575984597206116,6.167632818687707e-05,0.21823126077651978,-0.17770785093307495,0.04764220118522644,0.38503432273864746,0.13656112551689148},{-0.1889021396636963,0.3169652819633484,0.2284616380929947,0.13320927321910858,-0.14339511096477509,0.17589925229549408,0.3812809884548187,-0.04666852578520775,0.11560589075088501,-0.1903599500656128,0.26654180884361267,-0.31663066148757935,-0.3136011064052582,-0.5872822403907776,-0.1315794438123703,0.4732297956943512,0.10140270739793777,-0.1574828028678894,0.31156957149505615,0.060566119849681854,0.07024744153022766,-0.07925198972225189,-0.0009478863794356585,-0.3602310121059418,0.20891782641410828,0.114201121032238,0.11582119017839432,-0.4951223134994507,-0.06096182391047478,-0.03166019544005394,0.24634267389774323,-0.0961536392569542},{0.12078659236431122,0.16285622119903564,0.24115878343582153,-0.3031618893146515,0.13142535090446472,0.15002895891666412,0.2300080806016922,-0.09753213822841644,-0.2853873670101166,0.015076574869453907,0.047373369336128235,-0.0681774690747261,0.010495482012629509,0.025061506778001785,-0.0632130429148674,-0.17600643634796143,0.2769376039505005,-0.09368929266929626,-0.16225050389766693,0.04730267822742462,0.2345941960811615,-0.5582960247993469,0.23402492702007294,-0.33689597249031067,-0.13875173032283783,0.08433818072080612,-0.3428630530834198,0.27860739827156067,0.09512171149253845,-0.3469691574573517,0.1467459797859192,-0.00732221407815814}};
static const float layer_2_weight[32][32] = {{-0.43406617641448975,0.2642218768596649,-0.047907810658216476,0.11186060309410095,-0.44385403394699097,-0.13272060453891754,-0.12323831766843796,-0.14525340497493744,0.042994529008865356,-0.22638936340808868,0.004534157924354076,0.1667751520872116,-0.13377712666988373,0.329119473695755,0.10139349848031998,-0.21230311691761017,0.3289964497089386,0.05621323361992836,-0.09012956917285919,-0.9405774474143982,0.04018864035606384,0.2749262750148773,-0.12232669442892075,-0.11778512597084045,0.07371946424245834,0.1208563894033432,-0.19262219965457916,0.20229993760585785,-0.33587855100631714,-0.21962995827198029,0.15858983993530273,-0.046481795608997345},{0.25144171714782715,0.251228004693985,0.17626158893108368,-0.04579828679561615,0.049702439457178116,-0.18132400512695312,0.05320598930120468,0.11187846958637238,-0.40761101245880127,-0.07660016417503357,-0.3496098220348358,-0.005122903734445572,-0.2920069992542267,0.03984156250953674,0.2116023600101471,0.08220372349023819,0.27063027024269104,-0.4447777271270752,-0.03363703191280365,0.041718561202287674,0.14667238295078278,0.024800311774015427,0.18100176751613617,-0.008779188618063927,-0.2603585422039032,-0.18441540002822876,0.26767227053642273,-0.23430894315242767,0.06601822376251221,0.29688331484794617,-0.05149635300040245,0.13636557757854462},{0.2356690615415573,-0.43489426374435425,0.12934008240699768,0.36799564957618713,0.17705252766609192,0.13288672268390656,0.08424495905637741,0.12555722892284393,0.058362942188978195,0.055326592177152634,0.25294461846351624,0.1925331950187683,-0.22388829290866852,-0.1801486611366272,0.27655115723609924,0.17484460771083832,0.2362651824951172,-0.05647815763950348,0.08311476558446884,0.007072642911225557,-0.010298077948391438,0.2555994689464569,0.18272101879119873,0.1402319371700287,0.044273801147937775,-0.06941290199756622,0.38774797320365906,0.16967493295669556,0.057932306081056595,0.27670037746429443,0.2800188660621643,0.41748595237731934},{-0.06447576731443405,0.026304898783564568,-0.23016813397407532,-0.09950574487447739,-0.25920915603637695,-0.4715268909931183,0.19275254011154175,-0.11513830721378326,0.1536702662706375,-0.06283853948116302,-0.3051982522010803,0.19518697261810303,-0.001058856607414782,-0.3832979202270508,-0.19363681972026825,-0.22054612636566162,0.1961541771888733,-0.27105626463890076,0.14848187565803528,0.4244343638420105,0.33376961946487427,-0.191546231508255,0.303568571805954,-0.15000872313976288,-0.27266639471054077,0.35642534494400024,-0.3248138427734375,-0.08056557178497314,0.1478537619113922,0.14572085440158844,0.10892907530069351,-0.22907419502735138},{-0.08682221919298172,0.15335460007190704,-0.2149435579776764,-0.2468547374010086,0.10215279459953308,-0.1248648539185524,-0.010952112264931202,-0.22568203508853912,-0.4319065809249878,0.3822924792766571,-0.09587176889181137,0.3089325726032257,0.07991289347410202,0.23458890616893768,0.07513223588466644,-0.17240826785564423,-0.29243484139442444,0.09284798055887222,-0.13787856698036194,-0.17220894992351532,0.08673238009214401,0.20093907415866852,0.26719510555267334,-0.05183909460902214,-0.1698794811964035,-0.1716182678937912,-0.11108734458684921,0.05971739813685417,0.2103174924850464,-0.05085849016904831,-0.1126277893781662,-0.2322949916124344},{0.015184682793915272,-0.3474600911140442,-0.3491361141204834,-0.10790245980024338,-0.1512935608625412,-0.4474702477455139,0.057229649275541306,-0.11275506019592285,-0.1559171825647354,-0.29473352432250977,-0.1229335144162178,0.19057302176952362,0.08788568526506424,0.1790023297071457,-0.10762014985084534,-0.1584310531616211,-0.1577545702457428,-0.13248394429683685,0.2675574719905853,0.21567709743976593,0.3071182668209076,0.32790252566337585,0.3334430158138275,0.27076390385627747,-0.3092900514602661,-0.16054654121398926,0.2965352535247803,0.029929589480161667,0.3511485457420349,0.1546861082315445,-0.03384099155664444,-0.3837430775165558},{0.3904555141925812,-0.09972752630710602,-0.3455030620098114,0.17353768646717072,0.21731151640415192,0.3366548418998718,0.2820216119289398,0.10173116624355316,-0.11536768078804016,0.127732515335083,-0.1632205992937088,0.27208584547042847,0.004707976244390011,0.2600047290325165,-0.2733492851257324,0.19335834681987762,-0.18013226985931396,0.2042582482099533,0.0771738588809967,0.29234209656715393,-0.3554407060146332,0.03304094448685646,0.17886517941951752,0.01611422933638096,0.2808630168437958,-0.3767602741718292,-0.06656625866889954,-0.12368878722190857,0.16742302477359772,-0.13002516329288483,-0.1428169161081314,-0.3465863764286041},{0.3918968439102173,-0.18564851582050323,-0.07715766876935959,0.175767719745636,-0.3424225449562073,0.1161690205335617,0.04790855944156647,-0.1563902199268341,-0.1922813504934311,-0.19541727006435394,0.16386860609054565,0.012499313801527023,-0.1832055151462555,-0.47485119104385376,0.01322404108941555,0.38464227318763733,0.06719222664833069,0.04992560297250748,0.36573460698127747,-0.19909867644309998,-0.15666748583316803,-0.2002670168876648,0.27751943469047546,0.2212430089712143,-0.12791381776332855,-0.18789173662662506,-0.3478003740310669,0.27698442339897156,-0.24272924661636353,-0.21425484120845795,-0.1267050951719284,-0.18001754581928253},{0.10078659653663635,-0.1999436616897583,-0.036452434957027435,-0.4778884947299957,-0.05603673309087753,0.19664937257766724,0.21483725309371948,-0.5574257969856262,-0.322408527135849,0.16388890147209167,0.18212085962295532,0.09858337789773941,0.1435440480709076,0.20214857161045074,0.18151849508285522,0.23047290742397308,-0.20667296648025513,0.028124116361141205,-0.03741808235645294,0.16954053938388824,-0.0009714760817587376,0.16521242260932922,0.03034619614481926,0.22164815664291382,-0.14459507167339325,-0.3157075047492981,0.09534835070371628,0.2075258493423462,0.1885753720998764,0.18923543393611908,0.34724605083465576,0.043507348746061325},{-0.0734783336520195,0.2074655294418335,0.308281809091568,-0.029987933114171028,-0.2796460688114166,-0.0791914165019989,-0.23704871535301208,0.3287254869937897,0.25523626804351807,-0.05966370552778244,0.3557584583759308,0.027101749554276466,-0.05335146188735962,-0.15274742245674133,-0.08396482467651367,-0.15992094576358795,0.21138817071914673,0.07651088386774063,-0.22349587082862854,-0.03726673498749733,-0.3942347466945648,0.4529848098754883,0.3396828770637512,0.1601710170507431,-0.26512572169303894,0.20517408847808838,0.37622854113578796,0.22126474976539612,0.0919797271490097,0.2668244540691376,-0.08185821026563644,0.14974741637706757},{0.08704642206430435,-0.3801825940608978,0.01635606586933136,0.24294918775558472,0.1439395397901535,0.23959222435951233,0.27032899856567383,-0.13633857667446136,-0.25591224431991577,0.06218507140874863,-0.2184840887784958,0.10754866898059845,0.048499561846256256,-0.29076147079467773,-0.423168808221817,0.12279503047466278,-0.34676194190979004,-0.4163634181022644,-0.16634230315685272,0.350849449634552,0.22014184296131134,0.22966869175434113,0.09346997737884521,-0.21080882847309113,0.22272825241088867,-0.1918904036283493,-0.1953657567501068,0.1118449941277504,0.18749752640724182,-0.2055523544549942,0.03386050835251808,0.15925802290439606},{0.04769868776202202,0.4990914463996887,0.03832610324025154,-0.027708809822797775,-0.09975801408290863,0.21775290369987488,0.18055123090744019,0.22594551742076874,-0.006265217438340187,0.3196391761302948,-0.39570239186286926,0.2818324565887451,0.16118673980236053,-0.25266802310943604,0.0188546571880579,0.3321548104286194,0.2341907024383545,0.5321729183197021,0.29981181025505066,-0.3557901978492737,0.2238483428955078,0.16321556270122528,-0.08813779801130295,-0.2806013226509094,-0.5713926553726196,-0.004756019916385412,-0.015805436298251152,-0.06669238209724426,0.02379266358911991,0.0931645855307579,-0.2465517669916153,-0.12312452495098114},{-0.06314761191606522,0.18475468456745148,-0.04684276133775711,-0.10887981206178665,-0.3656255900859833,0.0038640962447971106,-0.11949041485786438,0.25308918952941895,0.386679083108902,-0.1501748114824295,0.5867253541946411,0.027348849922418594,-0.2165224850177765,0.0655827671289444,0.33041882514953613,0.21297769248485565,0.257713258266449,-0.0012823092984035611,0.037070777267217636,-0.1829565316438675,0.0004993266193196177,0.336360901594162,0.128933846950531,-0.0033378771040588617,-0.09790545701980591,0.042303718626499176,-0.153218612074852,-0.006633759941905737,0.19087661802768707,0.3766992390155792,-0.37205201387405396,0.32774680852890015},{-0.3703484535217285,-0.049602773040533066,-0.24645327031612396,0.028904035687446594,-0.4174855649471283,0.07067988067865372,-0.26897305250167847,-0.0270131416618824,-0.4806976318359375,0.28419578075408936,-0.5645216703414917,0.3516576588153839,0.012180499732494354,-0.06145733594894409,-0.38944509625434875,-0.22297219932079315,0.09525211155414581,0.10814569890499115,0.24296090006828308,-0.1750181019306183,-0.12730316817760468,-0.19440074265003204,0.11937767267227173,-0.04453643783926964,-0.5105848908424377,0.08318781852722168,-0.18537214398384094,0.06812278926372528,-0.24063637852668762,-0.4952969253063202,-0.23588460683822632,-0.10074938088655472},{-0.26143115758895874,0.22253607213497162,-0.2929876148700714,0.005509219132363796,0.028041452169418335,-0.40831509232521057,-0.014958870597183704,0.017505882307887077,-0.42160144448280334,0.03620579093694687,-0.4145171344280243,-0.15518687665462494,0.0014767543179914355,0.03059220500290394,0.059632282704114914,-0.18003122508525848,-0.26613274216651917,0.021580127999186516,0.2442295104265213,-0.10452715307474136,0.10538409650325775,-0.13664554059505463,0.06206756830215454,-0.11478053033351898,-0.2169833481311798,0.1935434192419052,-0.0073019457049667835,-0.24176014959812164,0.046532101929187775,-0.3204686641693115,0.23323799669742584,-0.1913909912109375},{0.4166507124900818,-0.47976985573768616,0.26141735911369324,0.0921783298254013,0.08248627930879593,-0.3681342899799347,0.2775801718235016,-0.26420876383781433,-0.3249443769454956,0.1676943600177765,0.14846985042095184,0.0634913519024849,0.18001165986061096,0.08413322269916534,0.10689488798379898,0.13340319693088531,-0.2714318037033081,-0.889880359172821,0.35989055037498474,0.41768014430999756,0.1725437045097351,0.13420192897319794,0.12668080627918243,-0.07502376288175583,0.25654926896095276,0.11179939657449722,-0.2621311843395233,0.24668797850608826,-0.11007284373044968,0.06271249800920486,-0.3558056056499481,0.13137400150299072},{0.21486303210258484,-0.056948114186525345,0.007768736220896244,-0.17076236009597778,-0.09737084060907364,-0.20690421760082245,0.12090667337179184,-0.4313403069972992,-0.42312052845954895,0.27846500277519226,-0.14252927899360657,0.16032859683036804,-0.014962377026677132,0.29168763756752014,-0.42358070611953735,-0.43000996112823486,0.2715546190738678,-0.1809045523405075,0.12727925181388855,0.2151787430047989,0.09816095232963562,-0.06722404807806015,-0.03472287952899933,0.0064728157594799995,0.011608140543103218,0.1485680639743805,0.0649792030453682,-0.12445301562547684,-0.09601742029190063,-0.19823749363422394,-0.21552233397960663,-0.3328677713871002},{0.13265949487686157,0.057331863790750504,-0.16869685053825378,0.17596840858459473,0.2791508138179779,-0.49412834644317627,0.24804013967514038,0.21164771914482117,-0.2132115513086319,-0.2091088443994522,-0.6049020290374756,-0.4525579512119293,-0.08500939607620239,-0.4581058919429779,-0.0743604451417923,-0.1481868028640747,-0.2962333858013153,-0.03420960530638695,0.009988581761717796,0.23337392508983612,0.11983286589384079,0.07359052449464798,-0.34459754824638367,-0.20657871663570404,-0.10661362111568451,0.05071161314845085,-0.38690242171287537,-0.46014609932899475,-0.13820751011371613,-0.04829005151987076,-0.20458592474460602,-0.6232250928878784},{0.10426682978868484,-0.12831445038318634,-0.22752153873443604,-0.019959203898906708,-0.020714271813631058,0.04960193112492561,0.17336241900920868,-0.25840288400650024,0.06360180675983429,0.1577477753162384,0.3417503237724304,-0.06887950003147125,0.30989766120910645,0.04027998447418213,-0.42322343587875366,-0.4084623157978058,0.2267950028181076,-0.24631088972091675,-0.1062299832701683,0.4307408332824707,-0.45099252462387085,-0.4583933651447296,-0.03268691897392273,0.2117677927017212,-0.3020904064178467,0.14124049246311188,-0.16763146221637726,0.04757627844810486,0.3441601097583771,-0.4299810230731964,0.31753116846084595,-0.0464794859290123},{-0.15564313530921936,0.3306910991668701,-0.3174450993537903,-0.27444222569465637,-0.37816187739372253,0.17734886705875397,0.38748010993003845,-0.1301879733800888,-0.060672465711832047,-0.029888557270169258,-0.4412105679512024,0.4876313805580139,0.06822261959314346,0.05411292985081673,0.01698126830160618,0.09031862765550613,-0.2869914770126343,0.24087823927402496,-0.27846482396125793,-0.13802127540111542,-0.2531070113182068,-0.23910017311573029,-0.1644858866930008,-0.06510601192712784,0.2807871103286743,-0.03300033509731293,0.2420317381620407,0.25480329990386963,-0.02169523388147354,-0.021827783435583115,-0.19057586789131165,-0.02555529773235321},{-0.1714712679386139,0.4020814895629883,-0.07607540488243103,-0.3275882601737976,0.33297574520111084,0.18841959536075592,-0.16834872961044312,-0.2848275601863861,0.20296569168567657,0.12407148629426956,0.456416517496109,0.08821700513362885,0.20732173323631287,-0.015120061114430428,0.25083136558532715,-0.010233093984425068,0.22367139160633087,0.09893720597028732,-0.28950539231300354,0.2424599975347519,0.34241366386413574,-0.18242420256137848,0.05369050055742264,0.20514404773712158,0.24757948517799377,-0.339622437953949,-0.12775756418704987,-0.164771169424057,0.3188706636428833,-0.13872939348220825,-0.010359887965023518,0.30420589447021484},{0.06071022152900696,-0.34112101793289185,0.36488860845565796,-0.0918462872505188,0.2769346237182617,-0.5563744306564331,-0.13417796790599823,-0.1651187241077423,0.09908388555049896,0.5021820068359375,-0.3821495473384857,-0.14268933236598969,0.44693416357040405,0.2320704162120819,0.025634247809648514,-0.43247663974761963,0.023570360615849495,-0.5085523128509521,-0.12387584894895554,0.44860345125198364,-0.22262181341648102,-0.3193158805370331,0.22245220839977264,0.12687340378761292,-0.009264045394957066,0.3116927146911621,0.2929626405239105,-0.27926531434059143,-0.1334199607372284,-0.3257734775543213,0.2848474085330963,0.0894341841340065},{0.164407417178154,0.11701991409063339,0.01699618622660637,0.011344585567712784,0.29667696356773376,-0.14327861368656158,0.23045077919960022,0.05778087303042412,0.07190611213445663,0.2911851108074188,-0.09325197339057922,-0.08867811411619186,0.13400541245937347,-0.26567143201828003,-0.08156891912221909,-0.2392164170742035,-0.4142600893974304,-0.37402719259262085,0.23124699294567108,0.18548667430877686,-0.17710275948047638,-0.08904347568750381,-0.23806357383728027,-0.017996298149228096,-0.1901974081993103,-0.0006109178066253662,0.3518451452255249,-0.16124385595321655,-0.12385351210832596,0.13234558701515198,-0.00026137210079468787,-0.3227880895137787},{-0.12162301689386368,0.2085191309452057,-0.03877589851617813,-0.1761241853237152,-0.19034560024738312,-0.14716865122318268,0.038672927767038345,-0.008879955857992172,0.2771140933036804,-0.058829884976148605,-0.30740055441856384,-0.0019038512837141752,-0.16270464658737183,0.16793890297412872,-0.3145022988319397,0.20014262199401855,-0.05487997457385063,0.07561534643173218,0.06503105163574219,0.2529318332672119,-0.0440867617726326,-0.26916640996932983,0.24146047234535217,-0.24307948350906372,-0.2808496654033661,0.19910931587219238,0.16450135409832,0.16141140460968018,-0.292081743478775,0.24334098398685455,0.11467406153678894,-0.5950847864151001},{0.2701360881328583,0.0788956731557846,-0.13245218992233276,0.03313334658741951,-0.27476766705513,0.09922104328870773,0.2908029556274414,0.020801693201065063,-0.39836543798446655,0.3688398599624634,-0.25276312232017517,-0.002439788542687893,0.08043178170919418,-0.06451956182718277,-0.24260488152503967,0.3389166593551636,0.12238709628582001,-0.041505228728055954,-0.14536325633525848,-0.1355210393667221,-0.03499670699238777,0.24490709602832794,0.324614942073822,0.19893310964107513,-0.2201610803604126,-0.25431349873542786,0.11524827778339386,0.06229288503527641,-0.25266996026039124,-0.061483025550842285,-0.11940640956163406,-0.21371442079544067},{0.16588211059570312,0.15102282166481018,-0.23445825278759003,-0.14478841423988342,0.13650280237197876,0.23810337483882904,0.26414090394973755,-0.19961009919643402,-0.23832321166992188,0.26169753074645996,-0.09723693132400513,-0.08335252106189728,0.22422835230827332,0.07188335061073303,-0.43426641821861267,0.15988101065158844,0.25687694549560547,-0.18044441938400269,0.3377397358417511,0.31656932830810547,0.09524989128112793,-0.03103405423462391,0.24102920293807983,-0.20911912620067596,0.18278847634792328,0.13671253621578217,0.30843088030815125,-0.0377507358789444,0.16555288434028625,0.26488569378852844,0.17030839622020721,-0.11357942223548889},{-0.19172708690166473,-0.13529691100120544,0.4284181594848633,0.09103227406740189,-0.1913098692893982,-0.15677593648433685,0.03979253023862839,-0.20983292162418365,-0.0019160002702847123,0.049945585429668427,0.08683273196220398,0.21985317766666412,0.08508273214101791,-0.12854833900928497,0.22707585990428925,0.051668811589479446,0.10196200758218765,-0.21699368953704834,-0.06528786569833755,-0.47141245007514954,0.0341377817094326,0.2652541995048523,0.28264790773391724,-0.15496264398097992,-0.1179313063621521,-0.1462535411119461,0.05261954292654991,-0.36955809593200684,-0.2027411162853241,-0.059798069298267365,-0.29935863614082336,0.27193498611450195},{-0.3509169816970825,0.4414926767349243,-0.1565650850534439,-0.17886090278625488,0.14114993810653687,0.022092634811997414,0.02153974026441574,-0.26019781827926636,0.09225252270698547,0.27818211913108826,-0.14921872317790985,0.12610310316085815,0.1915707141160965,0.27341029047966003,0.3232167661190033,0.14322537183761597,-0.04661821201443672,-0.03586111590266228,0.05300647020339966,-0.5396040678024292,-0.09288567304611206,0.11711932718753815,0.08376673609018326,-0.1369663029909134,-0.4157565236091614,-0.17629744112491608,0.2752949297428131,0.13648734986782074,0.13765330612659454,0.3000560402870178,-0.3233611285686493,0.3203462064266205},{0.32499998807907104,-0.021857067942619324,0.015021177008748055,-0.3432093858718872,-0.2221398949623108,0.12808819115161896,-0.13459129631519318,-0.3089275360107422,-0.20937514305114746,-0.13604579865932465,0.05364774540066719,0.017446203157305717,0.07593805342912674,0.031368188560009,0.17694075405597687,0.2736963927745819,-0.28475916385650635,-0.26043233275413513,0.18339090049266815,-0.08092665672302246,-0.05961042270064354,0.12697820365428925,0.0006331991171464324,0.28941810131073,0.07372326403856277,0.3026721179485321,-0.13100509345531464,-0.027188677340745926,-0.23975050449371338,-0.35904157161712646,0.23545590043067932,0.039556730538606644},{-0.08054834604263306,0.3070320188999176,0.1541176587343216,0.07747643440961838,-0.2579193711280823,-0.5757647156715393,-0.26567980647087097,-0.3793310523033142,0.06858371198177338,0.01970025897026062,0.3069268763065338,-0.011659206822514534,-0.3664354383945465,-0.03275778517127037,0.12915846705436707,0.0876939594745636,-0.18814346194267273,-0.39256927371025085,0.21280427277088165,-0.00044660642743110657,0.1413796842098236,0.02402910776436329,0.0650620087981224,-0.24303948879241943,0.22952121496200562,-0.13913708925247192,-0.5638383030891418,-0.2906743884086609,-0.19766207039356232,-0.12679222226142883,-0.2653372585773468,0.3411819636821747},{0.324736088514328,-0.1532774567604065,-0.03841974586248398,-0.03851785138249397,-0.14349426329135895,0.014947617426514626,-0.2687744200229645,0.17415091395378113,0.09887755662202835,0.026133812963962555,0.06707364320755005,0.13372354209423065,-0.08421415090560913,-0.41030994057655334,0.41725170612335205,-0.0002449766034260392,-0.07108757644891739,-0.6031002998352051,0.014603003859519958,0.002928071888163686,0.14588160812854767,0.40057507157325745,0.23840296268463135,0.2740271985530853,0.3080611526966095,0.022821951657533646,-0.4528537094593048,0.12143278867006302,-0.3067999482154846,-0.13244779407978058,-0.21508356928825378,0.34391751885414124},{-0.2918631434440613,-0.028103770688176155,0.003722055349498987,0.2699095904827118,0.14623910188674927,-0.14655359089374542,0.39321598410606384,-0.307335764169693,-0.0807405337691307,0.24837136268615723,-0.06771629303693771,0.01600976288318634,0.3223939538002014,0.13954439759254456,-0.3602757155895233,0.23900330066680908,-0.1176128089427948,0.42641445994377136,0.31063708662986755,0.017712809145450592,0.39189380407333374,-0.12717336416244507,-0.046833980828523636,0.10281428694725037,-0.09778039902448654,0.08676605671644211,-0.04521841183304787,-0.18896493315696716,-0.1933140903711319,0.01939425617456436,-0.028732506558299065,0.03233739361166954}};
static const float layer_3_weight[32][32] = {{0.022769272327423096,-0.17236068844795227,0.07723076641559601,-0.2027287781238556,-0.6578774452209473,-0.05248779058456421,-0.85655277967453,0.19767917692661285,-0.1556607037782669,0.0959465503692627,0.10733292251825333,0.07354439795017242,-0.29864898324012756,0.029253730550408363,-0.2431035339832306,-0.26408565044403076,-0.12030856311321259,0.20997682213783264,0.22925402224063873,-0.26098155975341797,-0.2643159031867981,0.00041760949534364045,0.18619567155838013,-0.08138958364725113,0.07889360934495926,0.25910645723342896,-0.46298864483833313,0.2895740866661072,0.10859733074903488,0.24539899826049805,0.3067149519920349,0.17310331761837006},{-0.2602115273475647,-0.5286728739738464,0.02537870593369007,0.1085650846362114,-0.07308873534202576,0.20205728709697723,0.2780883014202118,-0.16078007221221924,0.17318220436573029,-0.3714032769203186,-0.1456773728132248,-0.20540574193000793,0.1421227902173996,-0.07909215986728668,0.0415819026529789,-0.16363434493541718,-0.15774118900299072,-0.1705932468175888,-0.42714521288871765,-0.03723821043968201,-0.39156198501586914,-0.27231669425964355,0.28051695227622986,-0.2447967529296875,0.06807051599025726,-0.928102970123291,0.23643256723880768,0.040694575756788254,0.2749810218811035,-0.12913073599338531,0.10482887178659439,-0.1732262670993805},{-0.03270220756530762,0.22153428196907043,-0.030167747288942337,-0.37962204217910767,-0.4148466885089874,-0.14078091084957123,-0.22075989842414856,0.3640249967575073,0.19870641827583313,0.021291282027959824,-0.13592301309108734,-0.30580660700798035,-0.011339527554810047,0.2837190330028534,-0.2742595374584198,0.2584170997142792,-0.3081941306591034,-0.07441174238920212,-0.2747073769569397,-0.1729685217142105,0.31378576159477234,-0.19867831468582153,0.26385265588760376,0.29508593678474426,-0.1824224442243576,-0.18565252423286438,-0.451058954000473,0.2656746804714203,-0.030257850885391235,-0.22003173828125,-0.18753597140312195,-0.3122113347053528},{-0.4088423252105713,-0.016680801287293434,-0.29946020245552063,-0.3174269497394562,-0.08607107400894165,-0.38778164982795715,-0.024455668404698372,-0.10900408029556274,-0.3007088005542755,-0.42172765731811523,0.08117888867855072,-0.07955985516309738,-0.043292123824357986,0.16897901892662048,-0.5404239296913147,-0.022577861323952675,-0.20296654105186462,0.2572018802165985,-0.3846362233161926,0.2847874164581299,0.11335652321577072,-0.06446842104196548,-0.347853422164917,-0.2629672586917877,-0.08745243400335312,0.057014837861061096,-0.4442257881164551,-0.19123172760009766,0.29848700761795044,-0.17697548866271973,0.05441370606422424,-0.2677997946739197},{-0.016747500747442245,0.25989148020744324,0.42352309823036194,0.06427861005067825,0.14813807606697083,-0.2144031524658203,0.08120400458574295,-0.049407146871089935,-0.6991018652915955,0.06185144931077957,0.3562236428260803,0.09337424486875534,-0.1434059590101242,0.06137459725141525,-0.058733899146318436,0.12562762200832367,-0.25048041343688965,-0.01886671595275402,0.08461226522922516,-0.2509666085243225,0.4170747399330139,-0.0033446019515395164,-0.0008641312597319484,-0.015241138637065887,0.21538875997066498,-0.23957738280296326,-0.35707587003707886,-0.14806607365608215,-0.12074413150548935,0.28721851110458374,-0.07149934023618698,-0.27812659740448},{-0.06638205051422119,-0.1173957884311676,-0.20895035564899445,-0.32372787594795227,-0.19051027297973633,-0.11021851748228073,0.16657422482967377,0.3545258045196533,-0.07213607430458069,0.3889908790588379,-0.16821298003196716,0.13875673711299896,0.35500264167785645,-0.09021034091711044,0.17424240708351135,0.0445905476808548,-0.3223883807659149,-0.09988485276699066,-0.31635457277297974,0.049323610961437225,-0.657810628414154,-0.07509978860616684,0.03292141109704971,-0.1344926506280899,-0.0016746030887588859,0.2879464030265808,-0.19112011790275574,-0.057417336851358414,0.3353070020675659,0.36110737919807434,0.18708033859729767,0.12224975973367691},{0.044625334441661835,-0.10290884226560593,-0.2519831657409668,-0.31406736373901367,0.0010149404406547546,0.3233473300933838,0.2846546471118927,0.0776350200176239,-0.5316548347473145,0.08510530740022659,-0.19743560254573822,-0.3070354759693146,-0.25186148285865784,0.2807866036891937,0.3729833662509918,0.005720470566302538,0.26809990406036377,0.28905341029167175,0.14042162895202637,0.22879545390605927,-0.2684416174888611,0.007954059168696404,-0.06216754391789436,0.2677881717681885,-0.11041396111249924,0.40692996978759766,-0.250973105430603,-0.05079198628664017,-0.04455069079995155,-0.1742473542690277,-0.04505200684070587,-0.35715189576148987},{-0.27858686447143555,-0.44252192974090576,0.04507017508149147,-0.2365749627351761,-0.22534319758415222,0.2593242824077606,0.07845296710729599,0.4046614170074463,-0.3628638684749603,0.033965278416872025,0.29234084486961365,-0.42380213737487793,-0.3204939663410187,0.037041060626506805,-0.08248259127140045,-0.20729990303516388,-0.04033593088388443,0.11379177868366241,0.18461410701274872,-0.30254504084587097,-0.14115606248378754,-0.04419555142521858,0.05831128731369972,-0.0654604360461235,0.165854349732399,0.22489650547504425,-0.18898631632328033,-0.4077455997467041,-0.03195277974009514,0.2341664582490921,0.08006176352500916,-0.2517600953578949},{-0.14614273607730865,-0.3239216208457947,-0.07988113164901733,0.027963681146502495,0.07053247094154358,0.25774848461151123,-0.34164708852767944,-0.0833858773112297,0.20240886509418488,-0.7059898972511292,0.29629912972450256,-0.4916898310184479,-0.2497950941324234,0.0436733216047287,-0.07114380598068237,0.011289707385003567,-0.34143468737602234,0.09357436001300812,-0.07708076387643814,0.056720584630966187,-0.11436863988637924,-0.19076484441757202,-0.015026889741420746,0.19458861649036407,-0.2650018632411957,-0.14142079651355743,-0.2880207896232605,-0.31321027874946594,0.07917129993438721,0.17690695822238922,-0.24854300916194916,-0.25601866841316223},{0.35247862339019775,-0.020735828205943108,-0.22827017307281494,-0.060467805713415146,-0.11694629490375519,0.2719438672065735,0.18593309819698334,-0.05055933818221092,-0.17343901097774506,-0.013986332342028618,-0.0616430826485157,-0.1762629598379135,-0.1904376894235611,-0.1713636815547943,-0.1722293645143509,0.22867101430892944,0.21797332167625427,0.07005442678928375,0.32678160071372986,0.05647687986493111,0.019667861983180046,0.15678490698337555,0.1489015370607376,-0.18842458724975586,0.23502327501773834,-0.09404672682285309,0.008703870698809624,0.1572822779417038,0.1935487687587738,-0.14717602729797363,-0.16650860011577606,-0.025338290259242058},{0.02794245444238186,0.04415081441402435,0.0454256497323513,-0.48816823959350586,-0.3883431553840637,-0.4845968782901764,-0.29692837595939636,-0.34934067726135254,0.17776529490947723,-0.3235000669956207,0.37879088521003723,0.3900805115699768,-0.015709836035966873,0.1857369840145111,0.5316892266273499,-0.5644428730010986,-0.10409046709537506,0.15292036533355713,-0.08645227551460266,-0.6099348664283752,-0.24320313334465027,-0.18984603881835938,0.4249534010887146,0.174026221036911,-0.32118579745292664,-0.129404678940773,-0.21125371754169464,0.20220524072647095,0.006820890586823225,-0.031729843467473984,0.33384689688682556,0.1613229364156723},{0.2981775999069214,0.2493772804737091,0.141748309135437,-0.006804412696510553,0.06222273409366608,0.23540718853473663,0.1640077382326126,0.22708261013031006,0.05198860913515091,-0.13852453231811523,-0.14987973868846893,-0.2694481611251831,0.1358851194381714,0.10191738605499268,0.2733728587627411,0.09348181635141373,0.17866702377796173,0.005431288853287697,-0.10696513950824738,0.23943552374839783,-0.15005868673324585,-0.09618766605854034,-0.21274207532405853,-0.2144952118396759,0.15577949583530426,0.2662429213523865,0.14218774437904358,0.2706722319126129,0.1156756728887558,0.05651658773422241,-0.135154590010643,-0.13959456980228424},{0.05892053246498108,0.34414708614349365,-0.08289186656475067,-0.19602857530117035,0.2845101058483124,-0.2312377542257309,0.4410158097743988,-0.40260812640190125,-0.015332594513893127,0.1679932177066803,-0.1876591295003891,-0.24205058813095093,-0.17210568487644196,-0.17951048910617828,0.22164584696292877,-0.2013215571641922,0.01790679432451725,0.09055768698453903,0.1418946534395218,-0.014149137772619724,-0.05519666150212288,0.041712187230587006,0.04618123918771744,0.3204053044319153,-0.11237860471010208,-0.23339317739009857,-0.17657478153705597,0.08684912323951721,-0.43967384099960327,0.07667217403650284,0.03006380796432495,0.025688255205750465},{0.052962493151426315,-0.1321330964565277,-0.09255298227071762,0.09062159806489944,0.26142963767051697,0.018411019816994667,0.061343975365161896,-0.2554990351200104,-0.1708882749080658,-0.2216760367155075,0.3019365072250366,0.16425037384033203,0.06809711456298828,-0.14613030850887299,0.20142263174057007,0.12946464121341705,0.358612060546875,0.1805746853351593,-0.038569483906030655,-0.10786958038806915,0.06619716435670853,0.04103468358516693,-0.2602750360965729,-0.017775923013687134,-0.12355340272188187,-0.14032922685146332,0.28882789611816406,0.284127414226532,-0.2623138725757599,0.09584951400756836,0.14924760162830353,0.34153038263320923},{0.0530577152967453,-0.15778155624866486,0.0494382344186306,-0.2874116599559784,-0.3301495313644409,-0.2014637142419815,-0.5518587827682495,-0.2759909927845001,0.032651323825120926,-0.6329130530357361,-0.0851999893784523,-0.04329608753323555,0.2582041025161743,0.2298002988100052,-0.089634008705616,0.02389160357415676,-0.13391633331775665,-0.01032408606261015,-0.692183256149292,-0.44591572880744934,0.005983889102935791,0.17911675572395325,0.3050239682197571,-0.1099751889705658,-0.16667567193508148,-0.38362106680870056,-0.3254624903202057,0.42224374413490295,-0.19079431891441345,0.2161017507314682,0.13563480973243713,0.25371724367141724},{-0.08154276758432388,-0.053036466240882874,0.2619377374649048,-0.2981919050216675,0.08279425650835037,-0.16118299961090088,0.033618081361055374,0.2664208710193634,0.20388077199459076,0.18327975273132324,0.33018365502357483,0.17157235741615295,0.11944088339805603,0.2649244964122772,-0.05491353198885918,0.005480220075696707,0.25535324215888977,0.09965801984071732,0.022109942510724068,-0.009325048886239529,-0.5086615681648254,0.37931591272354126,-0.02559068612754345,-0.006859881803393364,0.27531230449676514,-0.4108821153640747,-0.21713916957378387,-0.03988564759492874,0.388437956571579,-0.016219545155763626,0.1464291512966156,-0.10735094547271729},{-0.3356320261955261,-0.177573561668396,0.1662735641002655,0.3320362865924835,0.20172624289989471,-0.22072526812553406,-0.13069605827331543,-0.12366872280836105,0.13646183907985687,-0.12044531852006912,-0.054672662168741226,0.266524076461792,-0.22177991271018982,0.23734387755393982,0.21315902471542358,0.03244416415691376,-0.0014194990508258343,0.22530560195446014,-0.5636316537857056,0.20361050963401794,-0.010731073096394539,-0.09143291413784027,-0.14580367505550385,0.1567876935005188,-0.15499679744243622,-0.20887134969234467,0.20325329899787903,-0.21969303488731384,0.1532081812620163,-0.22326423227787018,0.26035627722740173,0.29612964391708374},{0.5800430178642273,-0.5375092625617981,-0.20213109254837036,0.01766558736562729,0.3440307378768921,0.1640525907278061,-0.1478552222251892,0.0893569365143776,-0.34153732657432556,0.4054637551307678,0.5752773284912109,-0.23493492603302002,-0.1018269881606102,-0.23402057588100433,0.17766651511192322,-0.48485901951789856,-0.13369695842266083,0.2525777816772461,0.19088329374790192,0.14927755296230316,-0.21237026154994965,0.18896834552288055,-0.203985795378685,-0.13221317529678345,0.12106882780790329,-0.5597137808799744,0.14030791819095612,-0.4366508722305298,-0.1013144850730896,-0.12393193691968918,0.046676523983478546,0.3324407935142517},{0.30566877126693726,-0.12246546894311905,0.2612066864967346,-0.021469831466674805,-0.36766543984413147,-0.21935555338859558,-0.10647641122341156,-0.021273305639624596,-0.014426707290112972,0.04189068078994751,-0.16306401789188385,-0.1520361453294754,0.0053123231045901775,-0.2996862530708313,0.13686016201972961,-0.09936786442995071,0.30315253138542175,0.05362952873110771,0.19203665852546692,-0.16882598400115967,-0.09604758024215698,-0.3374534547328949,0.037654660642147064,-0.1632610559463501,0.1574605107307434,0.05916592851281166,-0.1382114589214325,-0.13255925476551056,0.2509796619415283,0.11077000200748444,0.10702582448720932,-0.19750313460826874},{0.3871641457080841,-0.27000242471694946,-0.12474185228347778,-0.051200516521930695,-0.5539659261703491,0.340653657913208,-0.32506221532821655,-0.1431410312652588,-0.19024118781089783,0.36961641907691956,0.13307315111160278,-0.2705722451210022,-0.011218328028917313,-0.023790638893842697,0.3274921774864197,0.19134418666362762,-0.28821805119514465,-0.3154156506061554,-0.06114106997847557,-0.13944078981876373,0.12679560482501984,-0.20535723865032196,-0.029472794383764267,0.126229926943779,-0.33022764325141907,-0.3334329128265381,-0.3187832534313202,-0.11427074670791626,-0.04871893301606178,0.17457230389118195,-0.19377928972244263,0.2094901204109192},{-0.11531556397676468,0.1635754108428955,0.3021451532840729,-0.4230979382991791,-0.3046921491622925,0.028721313923597336,-0.43357208371162415,-0.2684375047683716,0.003439199412241578,-0.24912095069885254,-0.05320364236831665,0.15746544301509857,0.004744976293295622,0.24843402206897736,0.007589263375848532,0.2666214108467102,0.2988263666629791,0.0700206384062767,-0.08923956006765366,-0.12495683133602142,0.27836430072784424,-0.326144814491272,-0.027159299701452255,0.1252835988998413,0.325318843126297,-0.052100133150815964,-0.12688443064689636,0.3544759452342987,-0.04626596346497536,0.15278124809265137,-0.2080511748790741,-0.0789935439825058},{-0.3006408214569092,0.05393125116825104,0.214460551738739,0.01560731790959835,-0.02049216628074646,0.015042737126350403,0.16368705034255981,0.21984823048114777,0.13449524343013763,-0.42798319458961487,-0.06972914934158325,0.1034165620803833,0.05529586225748062,0.29812851548194885,-0.21553632616996765,0.207107812166214,0.0765375867486,-0.08591412007808685,-0.4693058133125305,-0.19594520330429077,0.21378971636295319,0.29907000064849854,0.0012644999660551548,0.3680059313774109,0.26083871722221375,-0.32064366340637207,-0.04440626874566078,-0.18017259240150452,0.02877371944487095,0.1630859673023224,0.042533811181783676,0.13563117384910583},{-0.0650794729590416,-0.28311067819595337,-0.04339142143726349,0.33238568902015686,-0.3391834497451782,-0.022683313116431236,-0.27988654375076294,0.29410016536712646,-0.027547692880034447,-0.4573165476322174,-0.11712010204792023,0.13893119990825653,0.11646298319101334,0.1853695958852768,0.1909462809562683,-0.001895859488286078,0.2237432599067688,0.18559961020946503,-0.12093799561262131,0.12482180446386337,-0.02842611074447632,-0.05655709654092789,0.07094596326351166,0.21194754540920258,-0.21845440566539764,0.34996747970581055,0.12288501113653183,0.24634085595607758,-0.10864584147930145,-0.3437877297401428,0.2419314831495285,-0.018855491653084755},{0.26283371448516846,0.14999745786190033,0.06989125162363052,-0.09816791117191315,0.028327051550149918,0.010097794234752655,-0.5139994025230408,0.131245955824852,0.11482889950275421,0.20386287569999695,-0.11183315515518188,-0.15729524195194244,0.03440866991877556,0.37364813685417175,0.0030830095056444407,0.04849785938858986,-0.33830565214157104,-0.03354712948203087,-0.049909558147192,-0.2520436644554138,0.1287638247013092,0.18147878348827362,-0.2036515772342682,0.37307941913604736,0.1843681037425995,0.06913699954748154,-0.4756549596786499,0.04040740802884102,-0.2042110413312912,-0.006743507459759712,0.15835365653038025,0.06935723125934601},{0.33089175820350647,-0.11296109110116959,-0.2519506812095642,-0.547846794128418,0.1474684178829193,-0.1490239053964615,0.013800759799778461,0.07707015424966812,0.07291573286056519,0.2814417779445648,0.34860727190971375,-0.14905644953250885,-0.1643928736448288,-0.05777488276362419,-0.4618473947048187,-0.20197494328022003,-0.3909641206264496,-0.08521710336208344,-0.06922614574432373,0.13275720179080963,0.36069396138191223,-0.06595725566148758,-0.18291303515434265,0.06093229353427887,0.09696678817272186,0.2717318534851074,-0.043934598565101624,-0.1044977456331253,0.3251163959503174,0.02348780259490013,0.15813295543193817,-0.3129497170448303},{-0.1639898419380188,-0.3184322118759155,0.2756851315498352,-0.2640661597251892,-0.16446523368358612,0.26167967915534973,0.1729782372713089,-0.18986719846725464,0.3345184624195099,-0.16480283439159393,0.034066155552864075,0.2975461184978485,-0.36695581674575806,0.206351175904274,-0.11395952105522156,-0.005704842507839203,0.046000562608242035,0.08616547286510468,0.06412991136312485,-0.2590598464012146,0.09989567846059799,-0.022272160276770592,0.2396738976240158,0.1667955070734024,0.22463275492191315,-0.3175181448459625,-0.2970283329486847,0.2745238244533539,-0.21986111998558044,0.08490461856126785,0.2800031304359436,-0.18836230039596558},{0.17320773005485535,0.38168367743492126,-0.0541394017636776,0.40407922863960266,0.12103740870952606,0.09520991146564484,0.057196244597435,-0.09713099896907806,-0.3940955102443695,-0.01685749739408493,0.11423532664775848,0.005699188448488712,0.09051965922117233,0.3705350160598755,-0.10762348771095276,0.23268944025039673,0.27976086735725403,0.07617697864770889,0.2362041473388672,-0.2174289971590042,0.1858193278312683,0.07739529013633728,-0.24526430666446686,0.191175639629364,0.21119360625743866,0.15088455379009247,0.0999818742275238,-0.14678746461868286,-0.28161385655403137,0.2089616358280182,0.10217145085334778,0.09412410855293274},{-0.10333375632762909,0.4132806062698364,-0.3081938922405243,0.12610860168933868,0.15261203050613403,-0.3822478652000427,-0.3452301621437073,0.3658638298511505,-0.3888120949268341,0.396624892950058,0.19474740326404572,0.23600871860980988,0.1282554566860199,0.24849052727222443,0.21277642250061035,-0.3671826124191284,0.2199937105178833,-0.20403870940208435,-0.00465119956061244,-0.2865860164165497,-0.518429696559906,-0.08488347381353378,0.03810880705714226,-0.09285420179367065,-0.18438413739204407,0.18075019121170044,0.2976340055465698,0.05565100163221359,-0.21519821882247925,0.1716437190771103,-0.03428729996085167,0.20144884288311005},{0.02893734723329544,0.33376625180244446,-0.20850074291229248,0.06922225654125214,0.18238046765327454,0.061700139194726944,-0.2145303338766098,0.030748534947633743,-0.24145816266536713,-0.1953497976064682,-0.21647468209266663,0.2976744472980499,0.16731783747673035,0.005448478274047375,-0.22588294744491577,-0.19682568311691284,0.00964029785245657,-0.15171025693416595,-0.0783577412366867,-0.36203092336654663,0.046095944941043854,0.2950475215911865,-0.13229067623615265,0.011759012937545776,-0.08576014637947083,0.23396801948547363,0.006162108387798071,-0.06899320334196091,0.26655083894729614,-0.10629893094301224,0.13734140992164612,-0.10024715214967728},{-0.2766687273979187,0.5095447897911072,0.3149164617061615,-0.008942917920649052,-0.03790558874607086,-0.3075607419013977,-0.15602163970470428,0.2551611363887787,0.12180062383413315,-0.43111932277679443,-0.12820781767368317,-0.17720657587051392,0.08687867969274521,0.31412190198898315,-0.057262614369392395,0.07449644804000854,0.00693390890955925,-0.21107590198516846,0.1365787386894226,0.28107669949531555,0.24808113276958466,0.30924567580223083,0.14948488771915436,-0.11512356996536255,0.25260695815086365,-0.06291508674621582,0.14407877624034882,-0.12486426532268524,0.039216116070747375,0.2845424711704254,0.25360676646232605,0.11150436103343964},{0.16095836460590363,-0.026873672381043434,-0.2517768442630768,-0.1934565156698227,0.3531290888786316,-0.17635203897953033,0.07767844945192337,-0.07595933228731155,-0.27875733375549316,0.06242070719599724,0.2042580544948578,-0.10393273830413818,-0.21026137471199036,-0.11167497932910919,-0.21250629425048828,0.03282245621085167,0.2339596003293991,0.06311687082052231,0.19126859307289124,-0.17143023014068604,0.3398594558238983,0.02318803034722805,0.11601542681455612,-0.0776224136352539,-0.1270942986011505,-0.2658899128437042,-0.26413750648498535,0.20187976956367493,-0.14418113231658936,0.21879158914089203,0.24341373145580292,-0.08910897374153137},{-0.14793524146080017,0.26881179213523865,-0.2679089605808258,-0.34075888991355896,0.15131685137748718,-0.3228825330734253,-0.3241599500179291,0.21118031442165375,0.26415160298347473,-0.20104476809501648,0.009591445326805115,-0.027606932446360588,-0.22609905898571014,0.011577035300433636,0.2435006946325302,0.013890944421291351,-0.3145512044429779,0.04547636955976486,-0.48352348804473877,-0.5114954113960266,-0.3833543360233307,-0.1665561944246292,0.28931504487991333,0.05485565960407257,-0.011049658991396427,-0.7279903888702393,0.02376960590481758,-0.19933955371379852,-0.18970507383346558,-0.18973778188228607,-0.3525703251361847,-0.17797769606113434}};
static const float layer_4_weight[32][8] = {{-0.4932810664176941,0.0954369530081749,-0.08982614427804947,-0.2023906260728836,-0.11670799553394318,0.029023993760347366,-0.256232887506485,-0.08306760340929031},{0.29090481996536255,0.10864653438329697,0.23758335411548615,-0.33200496435165405,-0.2785724997520447,-0.3167795240879059,0.19837228953838348,0.06282991170883179},{0.230919748544693,-0.061487022787332535,0.032931484282016754,0.21612942218780518,-0.38616782426834106,-0.1368580162525177,0.008784636855125427,-0.49596697092056274},{0.14598695933818817,-0.22025977075099945,0.1413174569606781,0.055441029369831085,-0.16089874505996704,0.24769553542137146,-0.3418092429637909,0.21968881785869598},{0.006256017368286848,0.2515791058540344,-0.31657877564430237,-0.31036293506622314,-0.4169241487979889,0.4823574423789978,-0.24156470596790314,0.48300865292549133},{-0.289219468832016,-0.5123440027236938,0.06122149899601936,0.153922438621521,-0.2381151169538498,0.19447186589241028,-0.2496243119239807,-0.06010473892092705},{-0.22761142253875732,-0.4693557322025299,-0.5947825908660889,0.08001803606748581,0.06589078158140182,0.3490794003009796,0.29878923296928406,0.2587009072303772},{0.18087363243103027,0.29176580905914307,-0.05817783623933792,0.2934473752975464,-0.02524176426231861,0.059419598430395126,0.06276139616966248,0.09632369875907898},{-0.07296574115753174,0.0657254233956337,-0.06073927879333496,-0.10414417833089828,-0.6836429834365845,-0.2501102089881897,-0.8434187173843384,-0.4295368790626526},{-0.3336346745491028,0.021797694265842438,0.0839649960398674,-0.1293758749961853,0.6366068124771118,0.4802892208099365,0.018804868683218956,0.14486494660377502},{0.2633838355541229,0.3724876940250397,-0.31509149074554443,-0.19983330368995667,0.2450430691242218,-0.11449186503887177,0.14718656241893768,0.40340912342071533},{0.32091227173805237,-0.019915595650672913,0.07443706691265106,-0.043134864419698715,-0.6464642286300659,-0.226562961935997,0.055277857929468155,0.2592236399650574},{-0.1354328840970993,0.15701651573181152,-0.220231294631958,-0.2998729646205902,-0.05823333561420441,0.06293731927871704,-0.2346980720758438,-0.20020180940628052},{0.2703612744808197,0.04216165840625763,0.23738087713718414,0.12631042301654816,-0.1906931847333908,-0.28485560417175293,-0.11612221598625183,0.2387927919626236},{-0.15310965478420258,-0.12631697952747345,0.10375715047121048,-0.05371936038136482,0.21070876717567444,-0.39671239256858826,0.03313659876585007,-0.16764295101165771},{0.019799256697297096,-0.2078208178281784,0.21889270842075348,0.07525854557752609,-0.03404991328716278,0.4590291976928711,-0.21782155334949493,-0.5770347714424133},{0.11858773976564407,-0.2585618197917938,0.11426648497581482,-0.16637906432151794,0.12894827127456665,0.09443279355764389,0.2708035111427307,0.13450397551059723},{-0.01164254266768694,-0.1734738051891327,-0.001314460881985724,0.2217993289232254,0.08222784847021103,-0.10633538663387299,0.29212719202041626,-0.056357964873313904},{-0.30049192905426025,-0.3728910982608795,0.1494816392660141,0.1325657069683075,0.3285026252269745,-0.15279853343963623,0.24115793406963348,0.2581547498703003},{0.13070179522037506,-0.436373233795166,-0.11156424880027771,0.2346602827310562,0.1859506219625473,0.2834348678588867,-0.3267025649547577,-0.506134033203125},{0.24633145332336426,0.48121583461761475,0.26717403531074524,0.49275854229927063,0.18277829885482788,0.19804500043392181,0.07514778524637222,0.06271141022443771},{-0.06582670658826828,0.4137094020843506,0.05151944234967232,-0.24468882381916046,-0.14093738794326782,-0.10246744006872177,-0.11823141574859619,0.23558007180690765},{0.07861983776092529,0.017648272216320038,-0.2599342465400696,0.2559426426887512,-0.0677981898188591,-0.6829923391342163,-0.4873027801513672,-0.3281674385070801},{-0.24293240904808044,0.21595777571201324,0.3790334165096283,-0.002346467226743698,-0.31997713446617126,-0.04670098423957825,0.03979948163032532,-0.14949637651443481},{0.049822669476270676,0.18723426759243011,0.038651127368211746,-0.14457763731479645,0.31816571950912476,0.2640562057495117,-0.16594298183918,-0.15413784980773926},{0.059804096817970276,0.03104999288916588,0.4774244427680969,-0.025421613827347755,0.4876619577407837,0.37126344442367554,0.2089053988456726,-0.04393124207854271},{0.10363514721393585,-0.44793930649757385,-0.4291290044784546,-0.29403868317604065,-0.31036561727523804,0.058968402445316315,-0.05210718512535095,-0.09299325197935104},{-0.07437305897474289,-0.19044391810894012,0.1813495010137558,-0.11073365807533264,-0.38580775260925293,-0.1140952929854393,0.033495523035526276,-0.4496828019618988},{0.19750858843326569,0.21156996488571167,-0.10839539766311646,0.19865138828754425,0.1030915305018425,0.22766484320163727,-0.15199056267738342,-0.2188604772090912},{-0.23499347269535065,0.24455644190311432,0.08204764127731323,-0.09602315723896027,0.11533202230930328,-0.0426986888051033,0.1383543461561203,0.4784599840641022},{-0.1372649073600769,0.07634121924638748,-0.06383544206619263,-0.07711880654096603,0.20020122826099396,-0.2482314109802246,-0.18947497010231018,-0.22096745669841766},{0.19081072509288788,-0.05499068275094032,-0.20300093293190002,-0.3443058431148529,-0.30888786911964417,-0.09661594778299332,-0.4212510883808136,0.027341239154338837}};
static const float layer_0_bias[32] = {0.11512190103530884,-0.04121444746851921,-0.030906086787581444,0.24264372885227203,-0.09017569571733475,0.3479859530925751,-0.055951815098524094,-0.14702607691287994,0.4014771580696106,0.13746044039726257,-0.04362431913614273,0.08873621374368668,0.02980596199631691,0.19718818366527557,0.1674724966287613,0.050485167652368546,0.0015208474360406399,-0.19068443775177002,0.021739738062024117,0.5275848507881165,-0.006319993641227484,0.15895670652389526,-0.0036057515535503626,-0.2990345358848572,0.3882397711277008,-0.019515937194228172,0.011531500145792961,0.21222403645515442,0.0894787460565567,0.045707300305366516,0.18357384204864502,0.11533062905073166};
static const float layer_1_bias[32] = {0.3233923316001892,0.07130762189626694,0.14032529294490814,0.02245253324508667,-0.13038156926631927,-0.06673797219991684,-0.18485477566719055,-0.0021006865426898003,0.05848521739244461,0.25705334544181824,-0.18203987181186676,0.021845920011401176,0.2864318788051605,-0.14918547868728638,-0.12723930180072784,0.03317888081073761,-0.006586299277842045,-0.09882481396198273,0.013136028312146664,-0.14751730859279633,0.33078595995903015,0.09948840737342834,-0.09820815920829773,-0.15057635307312012,-0.18263305723667145,-0.19608916342258453,0.19213837385177612,0.19142119586467743,0.21647047996520996,0.36090555787086487,0.24845361709594727,-0.07589007914066315};
static const float layer_2_bias[32] = {0.020595982670783997,0.2098308503627777,0.17630550265312195,0.13668102025985718,0.025529002770781517,-0.11743104457855225,-0.12686988711357117,-0.09502967447042465,0.13770510256290436,-0.1855766773223877,0.4002755582332611,0.0581943541765213,-0.009451566264033318,0.0530422143638134,0.34475213289260864,0.019516877830028534,0.12797820568084717,-0.06766859441995621,-0.19549651443958282,-0.14787815511226654,0.09761488437652588,0.1500573605298996,0.062342528253793716,0.08931752294301987,0.05377238616347313,0.30991676449775696,-0.020883699879050255,-0.0009423762676306069,-0.00580377783626318,0.09314370900392532,-0.19041681289672852,0.2267448902130127};
static const float layer_3_bias[32] = {-6.872994163131807e-06,0.14364375174045563,0.22817380726337433,0.043412771075963974,0.05602601170539856,0.06584742665290833,-0.07605990767478943,-0.08824430406093597,0.41375207901000977,-0.121922068297863,-0.08634979277849197,0.2062954157590866,-0.0243802722543478,0.07801266759634018,0.06635579466819763,0.1910891979932785,-0.05226938799023628,-0.1047307550907135,-0.1695004552602768,0.08549390733242035,0.11148419976234436,0.02206873893737793,0.10865892469882965,0.11650248616933823,-0.05048215016722679,-0.06839544326066971,0.04943975806236267,0.3273857831954956,-0.015231738798320293,-0.11573697626590729,0.028557002544403076,0.08961714804172516};

	void networkEvaluate(float *state_array, float *control_n) {
	
		for (int i = 0; i < structure[0][1]; i++) {
			output_0[i] = 0;
			for (int j = 0; j < structure[0][0]; j++) {
				output_0[i] += state_array[j] * layer_0_weight[j][i];
			}
			output_0[i] += layer_0_bias[i];
			output_0[i] = tanhf(output_0[i]);
		}
	
		for (int i = 0; i < structure[1][1]; i++) {
			output_1[i] = 0;
			for (int j = 0; j < structure[1][0]; j++) {
				output_1[i] += output_0[j] * layer_1_weight[j][i];
			}
			output_1[i] += layer_1_bias[i];
			output_1[i] = tanhf(output_1[i]);
		}
		
		for (int i = 0; i < structure[2][1]; i++) {
			output_2[i] = 0;
			for (int j = 0; j < structure[2][0]; j++) {
				output_2[i] += output_1[j] * layer_2_weight[j][i];
			}
			output_2[i] += layer_2_bias[i];
			output_2[i] = tanhf(output_2[i]);
		}
		
		for (int i = 0; i < structure[3][1]; i++) {
			output_3[i] = 0;
			for (int j = 0; j < structure[3][0]; j++) {
				output_3[i] += output_2[j] * layer_3_weight[j][i];
			}
			output_3[i] += layer_3_bias[i];
		}
		
		control_n[0] = output_3[0];
		control_n[1] = output_3[1];
		control_n[2] = output_3[2];
		control_n[3] = output_3[3];	
	
	}
	